{"learner":{"attributes":{"scikit_learn":"{\"_estimator_type\": \"classifier\"}"},"feature_names":["Num_Columns","Num_PKs","Num_Numeric","Num_Text","Num_Date","Pct_Numeric","Pct_Text","Pct_Date","PK_Ratio","Has_Code_Prefix","Has_Measure_Prefix","Num_Key_Like","Num_Measure_Like"],"feature_types":["int","int","int","int","int","float","float","float","float","int","int","int","int"],"gradient_booster":{"model":{"gbtree_model_param":{"num_parallel_tree":"1","num_trees":"300"},"iteration_indptr":[0,1,2,3,4,5,6,7,8,9,10,11,12,13,14,15,16,17,18,19,20,21,22,23,24,25,26,27,28,29,30,31,32,33,34,35,36,37,38,39,40,41,42,43,44,45,46,47,48,49,50,51,52,53,54,55,56,57,58,59,60,61,62,63,64,65,66,67,68,69,70,71,72,73,74,75,76,77,78,79,80,81,82,83,84,85,86,87,88,89,90,91,92,93,94,95,96,97,98,99,100,101,102,103,104,105,106,107,108,109,110,111,112,113,114,115,116,117,118,119,120,121,122,123,124,125,126,127,128,129,130,131,132,133,134,135,136,137,138,139,140,141,142,143,144,145,146,147,148,149,150,151,152,153,154,155,156,157,158,159,160,161,162,163,164,165,166,167,168,169,170,171,172,173,174,175,176,177,178,179,180,181,182,183,184,185,186,187,188,189,190,191,192,193,194,195,196,197,198,199,200,201,202,203,204,205,206,207,208,209,210,211,212,213,214,215,216,217,218,219,220,221,222,223,224,225,226,227,228,229,230,231,232,233,234,235,236,237,238,239,240,241,242,243,244,245,246,247,248,249,250,251,252,253,254,255,256,257,258,259,260,261,262,263,264,265,266,267,268,269,270,271,272,273,274,275,276,277,278,279,280,281,282,283,284,285,286,287,288,289,290,291,292,293,294,295,296,297,298,299,300],"tree_info":[0,0,0,0,0,0,0,0,0,0,0,0,0,0,0,0,0,0,0,0,0,0,0,0,0,0,0,0,0,0,0,0,0,0,0,0,0,0,0,0,0,0,0,0,0,0,0,0,0,0,0,0,0,0,0,0,0,0,0,0,0,0,0,0,0,0,0,0,0,0,0,0,0,0,0,0,0,0,0,0,0,0,0,0,0,0,0,0,0,0,0,0,0,0,0,0,0,0,0,0,0,0,0,0,0,0,0,0,0,0,0,0,0,0,0,0,0,0,0,0,0,0,0,0,0,0,0,0,0,0,0,0,0,0,0,0,0,0,0,0,0,0,0,0,0,0,0,0,0,0,0,0,0,0,0,0,0,0,0,0,0,0,0,0,0,0,0,0,0,0,0,0,0,0,0,0,0,0,0,0,0,0,0,0,0,0,0,0,0,0,0,0,0,0,0,0,0,0,0,0,0,0,0,0,0,0,0,0,0,0,0,0,0,0,0,0,0,0,0,0,0,0,0,0,0,0,0,0,0,0,0,0,0,0,0,0,0,0,0,0,0,0,0,0,0,0,0,0,0,0,0,0,0,0,0,0,0,0,0,0,0,0,0,0,0,0,0,0,0,0,0,0,0,0,0,0,0,0,0,0,0,0,0,0,0,0,0,0,0,0,0,0,0,0,0,0,0,0,0,0],"trees":[{"base_weights":[-1.8712638E-2,-1.5665214E0,1.2145463E0,-1.8175592E0,1.4705141E-1,1.3401406E0,-1.3846154E-2,-1.948718E-2,8.200672E-2,-6.296297E-1,9.5636195E-1,1.4198161E0,-3.3025643E-1,8.677741E-3,-1E-2,6.2580644E-3,-1.3333334E-2,3.5600576E-3,1.1665443E-2,6.9259983E-3,1.6573446E-2,-1.1111111E-2,6.2580644E-3],"categories":[],"categories_nodes":[],"categories_segments":[],"categories_sizes":[],"default_left":[0,0,0,0,0,0,0,0,0,0,0,0,0,0,0,0,0,0,0,0,0,0,0],"id":0,"left_children":[1,3,5,7,9,11,-1,-1,13,15,17,19,21,-1,-1,-1,-1,-1,-1,-1,-1,-1,-1],"loss_changes":[2.0520175E2,2.0771637E1,2.13891E1,1.0536591E1,5.0121465E0,8.1332855E0,0E0,0E0,3.970725E0,4.529988E0,6.833601E-2,8.379288E0,3.258307E0,0E0,0E0,0E0,0E0,0E0,0E0,0E0,0E0,0E0,0E0],"parents":[2147483647,0,0,1,1,2,2,3,3,4,4,5,5,8,8,9,9,10,10,11,11,12,12],"right_children":[2,4,6,8,10,12,-1,-1,14,16,18,20,22,-1,-1,-1,-1,-1,-1,-1,-1,-1,-1],"split_conditions":[9E0,1.5E-1,1E0,5E0,4E0,3E1,-1.3846154E-2,-1.948718E-2,8E0,2.0833333E-1,6E0,1.6E1,3E0,8.677741E-3,-1E-2,6.2580644E-3,-1.3333334E-2,3.5600576E-3,1.1665443E-2,6.9259983E-3,1.6573446E-2,-1.1111111E-2,6.2580644E-3],"split_indices":[0,5,9,1,1,2,0,0,0,5,1,0,4,0,0,0,0,0,0,0,0,0,0],"split_type":[0,0,0,0,0,0,0,0,0,0,0,0,0,0,0,0,0,0,0,0,0,0,0],"sum_hessian":[1.0550352E2,4.6665493E1,5.8838028E1,4.0649647E1,6.015845E0,5.6588028E1,2.25E0,3.8E1,2.6496477E0,3.1830986E0,2.8327465E0,5.4154926E1,2.4330986E0,1.6496478E0,1E0,1.1830986E0,2E0,1.4330986E0,1.3996478E0,1.4297535E1,3.985739E1,1.25E0,1.1830986E0],"tree_param":{"num_deleted":"0","num_feature":"13","num_nodes":"23","size_leaf_vector":"1"}},{"base_weights":[9.589111E-3,-1.647502E0,1.2207575E0,-1.92447E-2,-6.2426066E-1,1.3290336E0,-1.324145E-2,2.7754277E-1,-1.36513775E-2,1.7735335E-1,1.4330758E0,-5.694962E-3,7.731445E-3,-1.2682027E-2,1.0607422E-2,8.007931E-3,1.733532E-2],"categories":[],"categories_nodes":[],"categories_segments":[],"categories_sizes":[],"default_left":[0,0,0,0,0,0,0,0,0,0,0,0,0,0,0,0,0],"id":1,"left_children":[1,3,5,-1,7,9,-1,11,-1,13,15,-1,-1,-1,-1,-1,-1],"loss_changes":[2.1274162E2,1.1484459E1,1.8633163E1,0E0,7.7384777E0,6.8435516E0,0E0,2.8747408E0,0E0,9.069866E0,8.905632E0,0E0,0E0,0E0,0E0,0E0,0E0],"parents":[2147483647,0,0,1,1,2,2,4,4,5,5,7,7,9,9,10,10],"right_children":[2,4,6,-1,8,10,-1,12,-1,14,16,-1,-1,-1,-1,-1,-1],"split_conditions":[9E0,1E0,1E0,-1.92447E-2,3E-1,5.172414E-2,-1.324145E-2,4E0,-1.36513775E-2,7.8947365E-2,1.7E1,-5.694962E-3,7.731445E-3,-1.2682027E-2,1.0607422E-2,8.007931E-3,1.733532E-2],"split_indices":[0,4,9,0,7,8,0,1,0,7,0,0,0,0,0,0,0],"split_type":[0,0,0,0,0,0,0,0,0,0,0,0,0,0,0,0,0],"sum_hessian":[1.03996864E2,4.376221E1,6.023465E1,3.374693E1,1.0015284E1,5.8234745E1,1.9999042E0,4.7991247E0,5.216159E0,5.0491004E0,5.3185646E1,1.7164387E0,3.0826864E0,1.7499365E0,3.2991643E0,1.831296E1,3.4872684E1],"tree_param":{"num_deleted":"0","num_feature":"13","num_nodes":"17","size_leaf_vector":"1"}},{"base_weights":[-8.0901854E-2,-1.681728E0,1.1960438E0,-1.9153338E-2,8.686468E-2,-7.73312E-1,1.3452787E0,5.9683096E-1,-1.09617505E-2,-1.2638952E-2,-4.970249E-4,1.4243027E0,-1.0977427E-2,1.0271857E-2,-6.394406E-4,6.6600107E-3,1.5769042E-2],"categories":[],"categories_nodes":[],"categories_segments":[],"categories_sizes":[],"default_left":[0,0,0,0,0,0,0,0,0,0,0,0,0,0,0,0,0],"id":2,"left_children":[1,3,5,-1,7,9,11,13,-1,-1,-1,15,-1,-1,-1,-1,-1],"loss_changes":[2.1101894E2,1.9082535E1,1.7927895E1,0E0,4.454208E0,1.5994501E0,1.1945824E1,1.5013899E0,0E0,0E0,0E0,5.028282E0,0E0,0E0,0E0,0E0,0E0],"parents":[2147483647,0,0,1,1,2,2,4,4,5,5,6,6,7,7,11,11],"right_children":[2,4,6,-1,8,10,12,14,-1,-1,-1,16,-1,-1,-1,-1,-1],"split_conditions":[1E0,9E0,3E0,-1.9153338E-2,1E0,7.8947365E-2,1E0,1.1E1,-1.09617505E-2,-1.2638952E-2,-4.970249E-4,1.2E1,-1.0977427E-2,1.0271857E-2,-6.394406E-4,6.6600107E-3,1.5769042E-2],"split_indices":[2,0,1,0,9,7,9,3,0,0,0,0,0,0,0,0,0],"split_type":[0,0,0,0,0,0,0,0,0,0,0,0,0,0,0,0,0],"sum_hessian":[1.01245766E2,4.4784843E1,5.6460922E1,3.94863E1,5.298543E0,3.6825726E0,5.277835E1,4.0487723E0,1.2497706E0,1.7496884E0,1.9328841E0,5.1528557E1,1.2497927E0,2.1160793E0,1.9326929E0,9.531135E0,4.199742E1],"tree_param":{"num_deleted":"0","num_feature":"13","num_nodes":"17","size_leaf_vector":"1"}},{"base_weights":[1.8826514E-2,-1.5568317E0,1.1936945E0,-1.7741588E0,6.182503E-1,1.376299E0,6.634745E-2,-1.8961407E-2,-3.503801E-1,9.601308E-1,-2.5193999E-3,4.6025783E-2,1.469614E0,-1.0359868E0,6.8600833E-1,-1.2517477E-2,6.2514967E-3,3.603481E-3,1.1681463E-2,7.944583E-3,-1.0941926E-2,8.7210825E-3,1.642315E-2,-1.2773911E-2,-2.689677E-3,9.35983E-3,-2.6991677E-3],"categories":[],"categories_nodes":[],"categories_segments":[],"categories_sizes":[],"default_left":[0,0,0,0,0,0,0,0,0,0,0,0,0,0,0,0,0,0,0,0,0,0,0,0,0,0,0],"id":3,"left_children":[1,3,5,7,9,11,13,-1,15,17,-1,19,21,23,25,-1,-1,-1,-1,-1,-1,-1,-1,-1,-1,-1,-1],"loss_changes":[2.0547726E2,2.3511055E1,1.2996468E1,6.867569E0,1.7439625E0,6.717987E0,7.4820623E0,0E0,4.8704515E0,5.7241917E-2,0E0,4.808029E0,3.8353577E0,3.9070225E-1,1.9127872E0,0E0,0E0,0E0,0E0,0E0,0E0,0E0,0E0,0E0,0E0,0E0,0E0],"parents":[2147483647,0,0,1,1,2,2,3,3,4,4,5,5,6,6,8,8,9,9,11,11,12,12,13,13,14,14],"right_children":[2,4,6,8,10,12,14,-1,16,18,-1,20,22,24,26,-1,-1,-1,-1,-1,-1,-1,-1,-1,-1,-1,-1],"split_conditions":[9E0,5E0,7.8571427E-1,1.5E-1,8E0,4.054054E-2,8.198198E-1,-1.8961407E-2,1.724138E-1,1E0,-2.5193999E-3,3.0769232E-1,1.5E1,8.064516E-1,9.230769E-1,-1.2517477E-2,6.2514967E-3,3.603481E-3,1.1681463E-2,7.944583E-3,-1.0941926E-2,8.7210825E-3,1.642315E-2,-1.2773911E-2,-2.689677E-3,9.35983E-3,-2.6991677E-3],"split_indices":[0,1,6,5,0,8,6,0,7,4,0,5,0,6,6,0,0,0,0,0,0,0,0,0,0,0,0],"split_type":[0,0,0,0,0,0,0,0,0,0,0,0,0,0,0,0,0,0,0,0,0,0,0,0,0,0,0],"sum_hessian":[1.0899348E2,4.641693E1,6.257655E1,4.2367985E1,4.048946E0,5.366346E1,8.913089E0,3.871898E1,3.6490054E0,2.832683E0,1.2162626E0,3.6154754E0,5.0047985E1,2.9656105E0,5.9474783E0,1.7494273E0,1.8995782E0,1.433038E0,1.3996451E0,2.365811E0,1.2496642E0,1.2578638E1,3.746935E1,1.7495703E0,1.2160401E0,4.731144E0,1.2163343E0],"tree_param":{"num_deleted":"0","num_feature":"13","num_nodes":"27","size_leaf_vector":"1"}},{"base_weights":[-1.4354688E-2,-1.5904326E0,1.1940459E0,-1.799229E0,1.1796149E-2,1.9028386E-1,1.4218048E0,-1.8803956E-2,-5.9416605E-4,6.061983E-1,-7.927415E-3,-1.5547435E-2,1.0869263E0,7.6947737E-1,1.6261158E0,-2.5277915E-3,1.0226868E-2,1.41269285E-2,-7.2290516E-4,9.473589E-3,-4.5224563E-3,7.0045283E-3,1.7083798E-2],"categories":[],"categories_nodes":[],"categories_segments":[],"categories_sizes":[],"default_left":[0,0,0,0,0,0,0,0,0,0,0,0,0,0,0,0,0,0,0,0,0,0,0],"id":4,"left_children":[1,3,5,7,9,11,13,-1,-1,15,-1,-1,17,19,21,-1,-1,-1,-1,-1,-1,-1,-1],"loss_changes":[2.1142978E2,1.6137207E1,1.4096397E1,5.9076996E0,3.6117027E0,2.1681314E1,5.5547485E0,0E0,0E0,1.80837E0,0E0,0E0,3.5116358E0,3.4878445E0,1.6961517E0,0E0,0E0,0E0,0E0,0E0,0E0,0E0,0E0],"parents":[2147483647,0,0,1,1,2,2,3,3,4,4,5,5,6,6,9,9,12,12,13,13,14,14],"right_children":[2,4,6,8,10,12,14,-1,-1,16,-1,-1,18,20,22,-1,-1,-1,-1,-1,-1,-1,-1],"split_conditions":[1E0,5E0,3.0303031E-2,9E0,3E0,4E0,1.5E1,-1.8803956E-2,-5.9416605E-4,2E0,-7.927415E-3,-1.5547435E-2,1E1,1.4E1,1E1,-2.5277915E-3,1.0226868E-2,1.41269285E-2,-7.2290516E-4,9.473589E-3,-4.5224563E-3,7.0045283E-3,1.7083798E-2],"split_indices":[2,1,7,3,4,1,0,0,0,4,0,0,11,0,11,0,0,0,0,0,0,0,0],"split_type":[0,0,0,0,0,0,0,0,0,0,0,0,0,0,0,0,0,0,0,0,0,0,0],"sum_hessian":[1.0901682E2,4.717363E1,6.1843193E1,4.1626118E1,5.547512E0,1.1776801E1,5.006639E1,3.9693512E1,1.9326067E0,3.3321817E0,2.2153306E0,3.7481892E0,8.028612E0,1.3077753E1,3.698864E1,1.2164375E0,2.115744E0,6.096651E0,1.9319606E0,1.1611676E1,1.4660765E0,3.7954664E0,3.3193172E1],"tree_param":{"num_deleted":"0","num_feature":"13","num_nodes":"23","size_leaf_vector":"1"}},{"base_weights":[-8.404505E-3,-1.56764E0,1.1458501E0,-1.7832483E0,3.7982365E-1,1.2590384E0,-1.3591262E-2,-1.874439E-3,-1.8642765E-2,9.497198E-1,-5.6423424E-3,8.738818E-1,1.6320342E0,3.5162487E-3,1.1603515E-2,1.8241549E-3,1.2952894E-2,3.2665182E-3,1.6856035E-2],"categories":[],"categories_nodes":[],"categories_segments":[],"categories_sizes":[],"default_left":[0,0,0,0,0,0,0,0,0,0,0,0,0,0,0,0,0,0,0],"id":5,"left_children":[1,3,5,7,9,11,-1,-1,-1,13,-1,15,17,-1,-1,-1,-1,-1,-1],"loss_changes":[2.005324E2,2.0577583E1,1.9865883E1,5.190689E0,3.5210392E0,7.449356E0,0E0,0E0,0E0,7.4810505E-2,0E0,9.247744E0,1.5635605E0,0E0,0E0,0E0,0E0,0E0,0E0],"parents":[2147483647,0,0,1,1,2,2,3,3,4,4,5,5,9,9,11,11,12,12],"right_children":[2,4,6,8,10,12,-1,-1,-1,14,-1,16,18,-1,-1,-1,-1,-1,-1],"split_conditions":[9E0,5E0,1E0,5.16129E-1,8E0,4E0,-1.3591262E-2,-1.874439E-3,-1.8642765E-2,1E0,-5.6423424E-3,5E0,3.6036037E-2,3.5162487E-3,1.1603515E-2,1.8241549E-3,1.2952894E-2,3.2665182E-3,1.6856035E-2],"split_indices":[0,1,9,6,0,4,0,0,0,4,0,1,5,0,0,0,0,0,0],"split_type":[0,0,0,0,0,0,0,0,0,0,0,0,0,0,0,0,0,0,0],"sum_hessian":[1.09424E2,4.6394043E1,6.302996E1,4.1845547E1,4.548498E0,6.0780933E1,2.2490273E0,2.1821723E0,3.9663372E1,2.832572E0,1.7159262E0,3.1547625E1,2.9233309E1,1.4329766E0,1.3995955E0,1.2488594E1,1.905903E1,1.4321558E0,2.7801153E1],"tree_param":{"num_deleted":"0","num_feature":"13","num_nodes":"19","size_leaf_vector":"1"}},{"base_weights":[4.9855936E-2,-1.6456794E0,1.1856515E0,-1.8374927E-2,-7.8959906E-1,1.8794152E-1,1.4080938E0,-1.2131566E0,6.0388045E-3,-1.5098272E-2,9.905869E-1,7.856826E-1,1.6226499E0,-5.257605E-3,-1.5268301E-2,1.2176007E-2,-2.8248467E-3,1.08404895E-2,3.043527E-3,3.710098E-3,1.6878279E-2],"categories":[],"categories_nodes":[],"categories_segments":[],"categories_sizes":[],"default_left":[0,0,0,0,0,0,0,0,0,0,0,0,0,0,0,0,0,0,0,0,0],"id":6,"left_children":[1,3,5,-1,7,9,11,13,-1,-1,15,17,19,-1,-1,-1,-1,-1,-1,-1,-1],"loss_changes":[2.0500467E2,5.563431E0,1.387767E1,0E0,6.3824987E0,1.8899086E1,5.6629105E0,8.5179424E-1,0E0,0E0,3.024603E0,1.8611135E0,2.4489975E0,0E0,0E0,0E0,0E0,0E0,0E0,0E0,0E0],"parents":[2147483647,0,0,1,1,2,2,4,4,5,5,6,6,7,7,10,10,11,11,12,12],"right_children":[2,4,6,-1,8,10,12,14,-1,-1,16,18,20,-1,-1,-1,-1,-1,-1,-1,-1],"split_conditions":[1E0,7E0,3.0303031E-2,-1.8374927E-2,6.363636E-1,4E0,1.5E1,3.0769232E-1,6.0388045E-3,-1.5098272E-2,1.2E1,7E0,4.054054E-2,-5.257605E-3,-1.5268301E-2,1.2176007E-2,-2.8248467E-3,1.08404895E-2,3.043527E-3,3.710098E-3,1.6878279E-2],"split_indices":[2,0,7,0,8,1,0,8,0,0,11,11,8,0,0,0,0,0,0,0,0],"split_type":[0,0,0,0,0,0,0,0,0,0,0,0,0,0,0,0,0,0,0,0,0],"sum_hessian":[1.04439514E2,4.171609E1,6.2723423E1,3.3143543E1,8.572547E0,1.1771256E1,5.0952168E1,6.6734967E0,1.8990496E0,3.4958057E0,8.275451E0,1.4256636E1,3.6695534E1,2.9296E0,3.7438967E0,7.0600724E0,1.2153783E0,8.02803E0,6.228605E0,2.1475492E0,3.454798E1],"tree_param":{"num_deleted":"0","num_feature":"13","num_nodes":"21","size_leaf_vector":"1"}},{"base_weights":[9.248978E-3,-1.5133984E0,1.2308323E0,-1.7169088E0,4.805542E-1,1.4486036E0,2.5644028E-3,-1.8312681E-2,-3.4257606E-1,9.408705E-1,-4.296209E-3,1.5264399E0,-2.1737383E-3,-1.0284871E0,5.703319E-1,6.1534196E-3,-1.2289584E-2,3.4303956E-3,1.154892E-2,2.936799E-3,1.5570087E-2,-2.6797918E-3,-1.26741165E-2,1.1335808E-2,9.378513E-5],"categories":[],"categories_nodes":[],"categories_segments":[],"categories_sizes":[],"default_left":[0,0,0,0,0,0,0,0,0,0,0,0,0,0,0,0,0,0,0,0,0,0,0,0,0],"id":7,"left_children":[1,3,5,7,9,11,13,-1,15,17,-1,19,-1,21,23,-1,-1,-1,-1,-1,-1,-1,-1,-1,-1],"loss_changes":[2.0378917E2,2.0616936E1,1.625557E1,6.362732E0,2.6240454E0,7.0269012E0,6.531957E0,0E0,4.7016206E0,9.415293E-2,0E0,1.4062271E0,0E0,3.8051367E-1,2.2619805E0,0E0,0E0,0E0,0E0,0E0,0E0,0E0,0E0,0E0,0E0],"parents":[2147483647,0,0,1,1,2,2,3,3,4,4,5,5,6,6,8,8,9,9,11,11,13,13,14,14],"right_children":[2,4,6,8,10,12,14,-1,16,18,-1,20,-1,22,24,-1,-1,-1,-1,-1,-1,-1,-1,-1,-1],"split_conditions":[9E0,5E0,7.8571427E-1,1E0,8E0,3E1,8.198198E-1,-1.8312681E-2,2.5531915E-1,1E0,-4.296209E-3,2.9411766E-1,-2.1737383E-3,4E0,1.1E1,6.1534196E-3,-1.2289584E-2,3.4303956E-3,1.154892E-2,2.936799E-3,1.5570087E-2,-2.6797918E-3,-1.26741165E-2,1.1335808E-2,9.378513E-5],"split_indices":[0,1,6,2,0,2,6,0,5,4,0,6,0,1,3,0,0,0,0,0,0,0,0,0,0],"split_type":[0,0,0,0,0,0,0,0,0,0,0,0,0,0,0,0,0,0,0,0,0,0,0,0,0],"sum_hessian":[1.0756023E2,4.7773666E1,5.978656E1,4.347535E1,4.298317E0,5.063042E1,9.156138E0,3.9828693E1,3.646657E0,2.8322146E0,1.4661022E0,4.845052E1,2.1799033E0,2.9633358E0,6.1928024E0,1.8995672E0,1.7470897E0,1.4327922E0,1.3994224E0,1.4290197E0,4.70215E1,1.2156073E0,1.7477285E0,2.580715E0,3.6120875E0],"tree_param":{"num_deleted":"0","num_feature":"13","num_nodes":"25","size_leaf_vector":"1"}},{"base_weights":[1.9926092E-2,-1.5567207E0,1.1779238E0,-1.7365004E0,3.3648366E-1,1.2674459E0,-1.2358914E-2,-1.814208E-2,-5.1778036E-1,-2.465105E-3,6.0068714E-3,1.3674852E0,1.3144056E-1,3.472224E-3,-1.1532656E-2,8.33033E-3,1.5811216E-2,-1.1835988E-2,8.261185E-3],"categories":[],"categories_nodes":[],"categories_segments":[],"categories_sizes":[],"default_left":[0,0,0,0,0,0,0,0,0,0,0,0,0,0,0,0,0,0,0],"id":8,"left_children":[1,3,5,7,9,11,-1,-1,13,-1,-1,15,17,-1,-1,-1,-1,-1,-1],"loss_changes":[1.9851491E2,1.6257133E1,1.5110573E1,3.0587158E0,8.922186E-1,6.7446976E0,0E0,0E0,2.5606623E0,0E0,0E0,5.064621E0,6.4934454E0,0E0,0E0,0E0,0E0,0E0,0E0],"parents":[2147483647,0,0,1,1,2,2,3,3,4,4,5,5,8,8,11,11,12,12],"right_children":[2,4,6,8,10,12,-1,-1,14,-1,-1,16,18,-1,-1,-1,-1,-1,-1],"split_conditions":[9E0,5E0,1E0,1.5E-1,6.363636E-1,4.8387095E-1,-1.2358914E-2,-1.814208E-2,2.5531915E-1,-2.465105E-3,6.0068714E-3,1.6E1,5.4545456E-1,3.472224E-3,-1.1532656E-2,8.33033E-3,1.5811216E-2,-1.1835988E-2,8.261185E-3],"split_indices":[0,1,9,5,8,5,0,0,5,0,0,0,5,0,0,0,0,0,0],"split_type":[0,0,0,0,0,0,0,0,0,0,0,0,0,0,0,0,0,0,0],"sum_hessian":[1.0672607E2,4.5047836E1,6.1678234E1,4.1216652E1,3.8311849E0,5.9930485E1,1.7477479E0,3.8286804E1,2.9298475E0,1.2156613E0,2.6155236E0,5.4892742E1,5.0377436E0,1.4329588E0,1.4968885E0,1.7075203E1,3.781754E1,1.4980657E0,3.5396776E0],"tree_param":{"num_deleted":"0","num_feature":"13","num_nodes":"19","size_leaf_vector":"1"}},{"base_weights":[-1.2279774E-2,-1.4783155E0,1.0944705E0,-1.7184397E0,1.4278379E-1,-3.380176E-1,1.247605E0,-1.7994087E-2,1.1427226E-3,8.4895035E-3,-2.3285982E-1,-1.3742147E-2,5.7638264E-1,9.325998E-1,1.6294487E-2,3.967401E-3,-7.7714454E-3,1.0046462E-2,-2.8614183E-3,6.355511E-3,1.2814811E-2],"categories":[],"categories_nodes":[],"categories_segments":[],"categories_sizes":[],"default_left":[0,0,0,0,0,0,0,0,0,0,0,0,0,0,0,0,0,0,0,0,0],"id":9,"left_children":[1,3,5,7,9,11,13,-1,-1,-1,15,-1,17,19,-1,-1,-1,-1,-1,-1,-1],"loss_changes":[1.7793518E2,1.8607643E1,1.4131065E1,6.313835E0,2.0569673E0,7.2563877E0,5.2972336E0,0E0,0E0,0E0,2.1451092E0,0E0,1.8864634E0,2.6462288E0,0E0,0E0,0E0,0E0,0E0,0E0,0E0],"parents":[2147483647,0,0,1,1,2,2,3,3,4,4,5,5,6,6,10,10,12,12,13,13],"right_children":[2,4,6,8,10,12,14,-1,-1,-1,16,-1,18,20,-1,-1,-1,-1,-1,-1,-1],"split_conditions":[1E0,5E0,3E0,9E0,8E0,7.8947365E-2,4E0,-1.7994087E-2,1.1427226E-3,8.4895035E-3,5.714286E-1,-1.3742147E-2,1E0,6E0,1.6294487E-2,3.967401E-3,-7.7714454E-3,1.0046462E-2,-2.8614183E-3,6.355511E-3,1.2814811E-2],"split_indices":[2,1,1,0,0,7,4,0,0,0,8,0,1,1,0,0,0,0,0,0,0],"split_type":[0,0,0,0,0,0,0,0,0,0,0,0,0,0,0,0,0,0,0,0,0],"sum_hessian":[1.0766772E2,4.6171623E1,6.149609E1,4.016253E1,6.009094E0,5.822503E0,5.5673588E1,3.8480633E1,1.6818984E0,1.6490612E0,4.360033E0,2.4937406E0,3.3287625E0,3.2393032E1,2.3280554E1,2.147267E0,2.2127657E0,2.1142259E0,1.2145367E0,1.9020264E1,1.3372771E1],"tree_param":{"num_deleted":"0","num_feature":"13","num_nodes":"21","size_leaf_vector":"1"}},{"base_weights":[3.3015711E-3,-1.544723E0,1.1206287E0,-1.7824724E-2,-4.7624403E-1,-8.633222E-3,1.3497899E0,-7.604877E-1,3.8359973E-3,-1.49588715E-2,7.7066E-1,6.8665236E-1,1.5879209E0,-1.088711E-2,5.9085754E-3,9.865923E-3,-2.9627392E-3,-4.777558E-3,8.347538E-3,1.644562E-2,6.923387E-3],"categories":[],"categories_nodes":[],"categories_segments":[],"categories_sizes":[],"default_left":[0,0,0,0,0,0,0,0,0,0,0,0,0,0,0,0,0,0,0,0,0],"id":10,"left_children":[1,3,5,-1,7,9,11,13,-1,-1,15,17,19,-1,-1,-1,-1,-1,-1,-1,-1],"loss_changes":[1.9565353E2,1.11972885E1,1.7012749E1,0E0,2.734711E0,1.5149442E1,7.534897E0,4.124005E0,0E0,0E0,2.2699823E0,3.1913743E0,8.6138153E-1,0E0,0E0,0E0,0E0,0E0,0E0,0E0,0E0],"parents":[2147483647,0,0,1,1,2,2,4,4,5,5,6,6,7,7,10,10,11,11,12,12],"right_children":[2,4,6,-1,8,10,12,14,-1,-1,16,18,20,-1,-1,-1,-1,-1,-1,-1,-1],"split_conditions":[1E0,7E0,3.0303031E-2,-1.7824724E-2,6.363636E-1,4E0,9E0,1.7E1,3.8359973E-3,-1.49588715E-2,2E0,9.4339624E-2,4.1E1,-1.088711E-2,5.9085754E-3,9.865923E-3,-2.9627392E-3,-4.777558E-3,8.347538E-3,1.644562E-2,6.923387E-3],"split_indices":[2,0,7,0,8,1,11,0,0,0,12,7,3,0,0,0,0,0,0,0,0],"split_type":[0,0,0,0,0,0,0,0,0,0,0,0,0,0,0,0,0,0,0,0,0],"sum_hessian":[1.1111661E2,4.6420216E1,6.469639E1,3.7424564E1,8.995649E0,1.1076392E1,5.362E1,6.847562E0,2.1480875E0,3.492168E0,7.584224E0,1.5193441E1,3.8426556E1,5.665773E0,1.181789E0,6.3702726E0,1.2139516E0,1.4632392E0,1.3730203E1,3.5354267E1,3.0722902E0],"tree_param":{"num_deleted":"0","num_feature":"13","num_nodes":"21","size_leaf_vector":"1"}},{"base_weights":[4.8992604E-2,-1.4993067E0,1.1278011E0,-1.6815583E0,1.0957537E-1,1.2175411E0,-1.24625005E-2,-1.7677953E-2,3.353145E-3,9.235234E-1,-1.1827198E-2,1.8730284E-1,1.3979039E0,1.144493E-2,3.2569089E-3,-1.3706975E-2,8.773651E-3,7.2767385E-3,1.5930124E-2],"categories":[],"categories_nodes":[],"categories_segments":[],"categories_sizes":[],"default_left":[0,0,0,0,0,0,0,0,0,0,0,0,0,0,0,0,0,0,0],"id":11,"left_children":[1,3,5,7,9,11,-1,-1,-1,13,-1,15,17,-1,-1,-1,-1,-1,-1],"loss_changes":[1.753929E2,1.283197E1,1.4696411E1,7.342247E0,6.6963344E0,1.0908058E1,0E0,0E0,0E0,1.3325596E-1,0E0,1.2072719E1,5.5101776E0,0E0,0E0,0E0,0E0,0E0,0E0],"parents":[2147483647,0,0,1,1,2,2,3,3,4,4,5,5,9,9,11,11,12,12],"right_children":[2,4,6,8,10,12,-1,-1,-1,14,-1,16,18,-1,-1,-1,-1,-1,-1],"split_conditions":[1E0,5E0,1E0,9E0,1E1,3.0303031E-2,-1.24625005E-2,-1.7677953E-2,3.353145E-3,6E0,-1.1827198E-2,4E0,1.5E1,1.144493E-2,3.2569089E-3,-1.3706975E-2,8.773651E-3,7.2767385E-3,1.5930124E-2],"split_indices":[2,1,9,0,0,7,0,0,0,1,0,1,0,0,0,0,0,0,0],"split_type":[0,0,0,0,0,0,0,0,0,0,0,0,0,0,0,0,0,0,0],"sum_hessian":[1.0299334E2,4.2133633E1,6.085971E1,3.780587E1,4.3277617E0,5.9112385E1,1.747325E0,3.637409E1,1.4317822E0,2.830403E0,1.4973586E0,9.110635E0,5.000175E1,1.3989295E0,1.4314736E0,2.4938228E0,6.6168118E0,1.2340313E1,3.7661438E1],"tree_param":{"num_deleted":"0","num_feature":"13","num_nodes":"19","size_leaf_vector":"1"}},{"base_weights":[-8.727852E-3,-1.4319956E0,1.0685297E0,-1.6757582E0,2.2212128E-1,3.9336804E-1,1.4001414E0,-1.7557971E-2,-6.5319135E-4,5.952958E-1,-5.5388496E-3,5.693831E-1,-1.1600883E-2,-1.0614727E-2,1.5062486E0,1.3150168E-3,7.879672E-3,7.597358E-3,-4.717482E-3,5.7957176E-4,1.5698444E-2],"categories":[],"categories_nodes":[],"categories_segments":[],"categories_sizes":[],"default_left":[0,0,0,0,0,0,0,0,0,0,0,0,0,0,0,0,0,0,0,0,0],"id":12,"left_children":[1,3,5,7,9,11,13,-1,-1,15,-1,17,-1,-1,19,-1,-1,-1,-1,-1,-1],"loss_changes":[1.6279233E2,1.8814919E1,1.298098E1,5.038864E0,2.2866633E0,6.4841146E0,1.2083412E1,0E0,0E0,3.4722435E-1,0E0,4.2826695E0,0E0,0E0,3.4914856E0,0E0,0E0,0E0,0E0,0E0,0E0],"parents":[2147483647,0,0,1,1,2,2,3,3,4,4,5,5,6,6,9,9,11,11,14,14],"right_children":[2,4,6,8,10,12,14,-1,-1,16,-1,18,-1,-1,20,-1,-1,-1,-1,-1,-1],"split_conditions":[1E0,5E0,1.5E1,9E0,1.1E1,1E0,1E0,-1.7557971E-2,-6.5319135E-4,7.567568E-1,-5.5388496E-3,7.7272725E-1,-1.1600883E-2,-1.0614727E-2,2.9411766E-1,1.3150168E-3,7.879672E-3,7.597358E-3,-4.717482E-3,5.7957176E-4,1.5698444E-2],"split_indices":[2,1,0,3,3,9,1,0,0,6,0,6,0,0,6,0,0,0,0,0,0],"split_type":[0,0,0,0,0,0,0,0,0,0,0,0,0,0,0,0,0,0,0,0,0],"sum_hessian":[1.0417835E2,4.473947E1,5.9438885E1,3.898176E1,5.7577143E0,2.0298117E1,3.9140766E1,3.7050106E1,1.931653E0,4.045258E0,1.712456E0,1.88013E1,1.4968158E0,1.2453662E0,3.78954E1,1.6810914E0,2.3641667E0,1.612365E1,2.6776505E0,1.6744229E0,3.6220978E1],"tree_param":{"num_deleted":"0","num_feature":"13","num_nodes":"21","size_leaf_vector":"1"}},{"base_weights":[4.841637E-2,-1.4156126E0,1.1401441E0,-1.6621269E0,3.0462676E-1,1.2050418E0,-1.0795135E-2,-1.7421773E-2,-6.488833E-4,7.413321E-3,-3.040097E-3,8.857103E-1,1.5920639E0,1.0134174E-2,-1.1712599E-2,5.3206137E-3,1.6542865E-2],"categories":[],"categories_nodes":[],"categories_segments":[],"categories_sizes":[],"default_left":[0,0,0,0,0,0,0,0,0,0,0,0,0,0,0,0,0],"id":13,"left_children":[1,3,5,7,9,11,-1,-1,-1,-1,-1,13,15,-1,-1,-1,-1],"loss_changes":[1.689586E2,1.9661415E1,1.0020226E1,4.958313E0,1.9548435E0,5.91658E0,0E0,0E0,0E0,0E0,0E0,1.0311758E1,8.047943E-1,0E0,0E0,0E0,0E0],"parents":[2147483647,0,0,1,1,2,2,3,3,4,4,5,5,11,11,12,12],"right_children":[2,4,6,8,10,12,-1,-1,-1,-1,-1,14,16,-1,-1,-1,-1],"split_conditions":[1E0,5E0,1E0,9E0,3E0,4E0,-1.0795135E-2,-1.7421773E-2,-6.488833E-4,7.413321E-3,-3.040097E-3,2.7E1,4.054054E-2,1.0134174E-2,-1.1712599E-2,5.3206137E-3,1.6542865E-2],"split_indices":[2,1,9,3,4,4,0,0,0,0,0,2,8,0,0,0,0],"split_type":[0,0,0,0,0,0,0,0,0,0,0,0,0,0,0,0,0],"sum_hessian":[1.0370025E2,4.4170307E1,5.952994E1,3.8663517E1,5.506791E0,5.828299E1,1.246954E0,3.6731846E1,1.9316715E0,3.0793164E0,2.4274747E0,3.3735992E1,2.4546995E1,3.22416E1,1.4943947E0,1.8905864E0,2.2656408E1],"tree_param":{"num_deleted":"0","num_feature":"13","num_nodes":"17","size_leaf_vector":"1"}},{"base_weights":[4.656706E-2,-1.4628037E0,1.1185498E0,-1.643246E0,2.1462046E-1,1.1946576E0,-1.13668125E-2,-1.7272603E-2,3.329273E-3,1.1240108E-2,-1.1748187E-2,3.6729673E-1,1.3508673E0,-1.1144247E-2,1.2189406E-2,6.188423E-3,1.5197421E-2],"categories":[],"categories_nodes":[],"categories_segments":[],"categories_sizes":[],"default_left":[0,0,0,0,0,0,0,0,0,0,0,0,0,0,0,0,0],"id":14,"left_children":[1,3,5,7,9,11,-1,-1,-1,-1,-1,13,15,-1,-1,-1,-1],"loss_changes":[1.6809058E2,1.3414841E1,1.1779953E1,7.063301E0,7.734089E0,7.158226E0,0E0,0E0,0E0,0E0,0E0,1.4961121E1,5.172035E0,0E0,0E0,0E0,0E0],"parents":[2147483647,0,0,1,1,2,2,3,3,4,4,5,5,11,11,12,12],"right_children":[2,4,6,8,10,12,-1,-1,-1,-1,-1,14,16,-1,-1,-1,-1],"split_conditions":[1E0,5E0,1E0,9E0,1E1,3.0303031E-2,-1.13668125E-2,-1.7272603E-2,3.329273E-3,1.1240108E-2,-1.1748187E-2,5E0,8E0,-1.1144247E-2,1.2189406E-2,6.188423E-3,1.5197421E-2],"split_indices":[2,1,9,0,0,7,0,0,0,0,0,1,3,0,0,0,0],"split_type":[0,0,0,0,0,0,0,0,0,0,0,0,0,0,0,0,0],"sum_hessian":[1.0187537E2,4.215533E1,5.972003E1,3.807946E1,4.0758715E0,5.8225365E1,1.4946687E0,3.66474E1,1.4320576E0,2.5789664E0,1.4969053E0,9.779548E0,4.8445816E1,3.4567719E0,6.3227763E0,9.955602E0,3.8490215E1],"tree_param":{"num_deleted":"0","num_feature":"13","num_nodes":"17","size_leaf_vector":"1"}},{"base_weights":[2.3466995E-2,-1.43525E0,1.1224533E0,-1.6785865E0,2.0961237E-1,1.1863136E0,-1.0597783E-2,-1.7172076E-2,-3.935646E-3,9.954346E-3,-3.6230063E-1,4.331694E-1,1.335046E0,-8.596512E-3,5.9276214E-3,-1.3479924E-2,1.0941514E-2,7.930622E-3,1.4860584E-2],"categories":[],"categories_nodes":[],"categories_segments":[],"categories_sizes":[],"default_left":[0,0,0,0,0,0,0,0,0,0,0,0,0,0,0,0,0,0,0],"id":15,"left_children":[1,3,5,7,9,11,-1,-1,-1,-1,13,15,17,-1,-1,-1,-1,-1,-1],"loss_changes":[1.6981306E2,1.8572075E1,9.674561E0,1.2977219E0,3.3966956E0,6.0481033E0,0E0,0E0,0E0,0E0,2.7150178E0,1.4703062E1,2.8253326E0,0E0,0E0,0E0,0E0,0E0,0E0],"parents":[2147483647,0,0,1,1,2,2,3,3,4,4,5,5,10,10,11,11,12,12],"right_children":[2,4,6,8,10,12,-1,-1,-1,-1,14,16,18,-1,-1,-1,-1,-1,-1],"split_conditions":[1E0,9E0,1E0,8.333333E-1,1.1E1,2.7027028E-2,-1.0597783E-2,-1.7172076E-2,-3.935646E-3,9.954346E-3,1.7E1,4E0,9E0,-8.596512E-3,5.9276214E-3,-1.3479924E-2,1.0941514E-2,7.930622E-3,1.4860584E-2],"split_indices":[2,0,9,8,0,7,0,0,0,0,0,1,3,0,0,0,0,0,0],"split_type":[0,0,0,0,0,0,0,0,0,0,0,0,0,0,0,0,0,0,0],"sum_hessian":[1.0392234E2,4.452157E1,5.9400772E1,3.8766113E1,5.7554536E0,5.8155304E1,1.2454689E0,3.7308487E1,1.4576283E0,2.1124127E0,3.643041E0,1.0235857E1,4.7919445E1,2.4612446E0,1.1817962E0,2.4890864E0,7.74677E0,1.1804541E1,3.6114906E1],"tree_param":{"num_deleted":"0","num_feature":"13","num_nodes":"19","size_leaf_vector":"1"}},{"base_weights":[1.886433E-2,-1.4761933E0,1.0934728E0,-1.6170015E0,-1.4150329E-1,-2.7633342E-1,1.2424012E0,-1.7004248E-2,1.1409688E-3,8.44322E-3,-8.548231E-1,-1.276609E-2,5.363347E-1,4.061669E-1,1.416719E0,-1.0915919E-2,-2.2802965E-3,9.66339E-3,-3.1127506E-3,-6.8279896E-3,7.3504886E-3,-3.1908846E-3,1.4739403E-2],"categories":[],"categories_nodes":[],"categories_segments":[],"categories_sizes":[],"default_left":[0,0,0,0,0,0,0,0,0,0,0,0,0,0,0,0,0,0,0,0,0,0,0],"id":16,"left_children":[1,3,5,7,9,11,13,-1,-1,-1,15,-1,17,19,21,-1,-1,-1,-1,-1,-1,-1,-1],"loss_changes":[1.6150911E2,7.673004E0,1.2273079E1,5.672638E0,4.3139663E0,6.0111556E0,7.1396027E0,0E0,0E0,0E0,2.646711E-1,0E0,1.8751293E0,4.273658E0,4.780472E0,0E0,0E0,0E0,0E0,0E0,0E0,0E0,0E0],"parents":[2147483647,0,0,1,1,2,2,3,3,4,4,5,5,6,6,10,10,12,12,13,13,14,14],"right_children":[2,4,6,8,10,12,14,-1,-1,-1,16,-1,18,20,22,-1,-1,-1,-1,-1,-1,-1,-1],"split_conditions":[1E0,5E0,3E0,9E0,7E0,2.7027028E-2,1.2E1,-1.7004248E-2,1.1409688E-3,8.44322E-3,1.2E1,-1.276609E-2,1E0,4E0,6.7567565E-2,-1.0915919E-2,-2.2802965E-3,9.66339E-3,-3.1127506E-3,-6.8279896E-3,7.3504886E-3,-3.1908846E-3,1.4739403E-2],"split_indices":[2,1,1,0,3,7,0,0,0,0,3,0,1,1,8,0,0,0,0,0,0,0,0],"split_type":[0,0,0,0,0,0,0,0,0,0,0,0,0,0,0,0,0,0,0,0,0,0,0],"sum_hessian":[9.85237E1,4.1045338E1,5.747836E1,3.6937008E1,4.108328E0,5.552488E0,5.1925873E1,3.5255722E1,1.6812868E0,1.6476225E0,2.4607053E0,2.2330472E0,3.3194408E0,9.531508E0,4.2394363E1,1.2478029E0,1.2129025E0,2.1092918E0,1.210149E0,1.9612994E0,7.5702085E0,1.2068924E0,4.118747E1],"tree_param":{"num_deleted":"0","num_feature":"13","num_nodes":"23","size_leaf_vector":"1"}},{"base_weights":[3.4013756E-2,-1.4009279E0,1.1716082E0,-1.6131364E0,4.7991744E-1,1.2420433E0,-1.0724346E-2,-1.692636E-2,3.2080906E-3,1.1154006E-2,-5.3592813E-3,1.7451791E-1,1.404683E0,-1.2992609E-2,9.196202E-3,1.4638786E-2,4.6857414E-3],"categories":[],"categories_nodes":[],"categories_segments":[],"categories_sizes":[],"default_left":[0,0,0,0,0,0,0,0,0,0,0,0,0,0,0,0,0],"id":17,"left_children":[1,3,5,7,9,11,-1,-1,-1,-1,-1,13,15,-1,-1,-1,-1],"loss_changes":[1.6452628E2,1.856765E1,1.0215446E1,6.737503E0,4.013131E0,9.29644E0,0E0,0E0,0E0,0E0,0E0,1.0427342E1,1.948906E0,0E0,0E0,0E0,0E0],"parents":[2147483647,0,0,1,1,2,2,3,3,4,4,5,5,11,11,12,12],"right_children":[2,4,6,8,10,12,-1,-1,-1,-1,-1,14,16,-1,-1,-1,-1],"split_conditions":[1E0,5E0,1E0,9E0,3E0,3.0303031E-2,-1.0724346E-2,-1.692636E-2,3.2080906E-3,1.1154006E-2,-5.3592813E-3,4E0,7.7272725E-1,-1.2992609E-2,9.196202E-3,1.4638786E-2,4.6857414E-3],"split_indices":[2,1,9,3,4,7,0,0,0,0,0,1,6,0,0,0,0],"split_type":[0,0,0,0,0,0,0,0,0,0,0,0,0,0,0,0,0],"sum_hessian":[9.8783615E1,4.3580482E1,5.5203136E1,3.928989E1,4.2905912E0,5.39561E1,1.2470347E0,3.7858402E1,1.4314895E0,2.5791488E0,1.7114424E0,7.407595E0,4.6548508E1,2.2377305E0,5.1698647E0,4.3249775E1,3.2987309E0],"tree_param":{"num_deleted":"0","num_feature":"13","num_nodes":"17","size_leaf_vector":"1"}},{"base_weights":[6.3837264E-3,-1.3697577E0,1.0241629E0,-1.6462404E0,4.8903146E-1,1.7169517E-1,1.2336335E0,-1.6803196E-2,-4.429333E-3,1.00942785E-2,-3.0554065E-3,-1.4553281E-2,9.463992E-1,4.2054752E-1,1.3445798E0,1.2325946E-2,-1.3904881E-3,-5.4938537E-3,1.080821E-2,1.3940477E-2,2.6196213E-3],"categories":[],"categories_nodes":[],"categories_segments":[],"categories_sizes":[],"default_left":[0,0,0,0,0,0,0,0,0,0,0,0,0,0,0,0,0,0,0,0,0],"id":18,"left_children":[1,3,5,7,9,11,13,-1,-1,-1,-1,-1,15,17,19,-1,-1,-1,-1,-1,-1],"loss_changes":[1.5134793E2,2.4416405E1,1.0879662E1,9.052048E-1,3.0870416E0,1.8284924E1,3.917923E0,0E0,0E0,0E0,0E0,0E0,3.1825209E0,5.3472996E0,1.9525375E0,0E0,0E0,0E0,0E0,0E0,0E0],"parents":[2147483647,0,0,1,1,2,2,3,3,4,4,5,5,6,6,12,12,13,13,14,14],"right_children":[2,4,6,8,10,12,14,-1,-1,-1,-1,-1,16,18,20,-1,-1,-1,-1,-1,-1],"split_conditions":[1E0,5E0,3.0303031E-2,9E0,3E0,4E0,1.2E1,-1.6803196E-2,-4.429333E-3,1.00942785E-2,-3.0554065E-3,-1.4553281E-2,1E1,1.875E-1,5.263158E-1,1.2325946E-2,-1.3904881E-3,-5.4938537E-3,1.080821E-2,1.3940477E-2,2.6196213E-3],"split_indices":[2,1,7,3,4,1,0,0,0,0,0,0,11,5,5,0,0,0,0,0,0],"split_type":[0,0,0,0,0,0,0,0,0,0,0,0,0,0,0,0,0,0,0,0,0],"sum_hessian":[1.0605714E2,4.4943333E1,6.1113808E1,3.922345E1,5.719882E0,1.2413819E1,4.8699986E1,3.7757683E1,1.4657676E0,3.2928567E0,2.427025E0,3.7208269E0,8.692992E0,6.4224806E0,4.2277508E1,6.771909E0,1.9210829E0,2.669283E0,3.753198E0,4.015504E1,2.122464E0],"tree_param":{"num_deleted":"0","num_feature":"13","num_nodes":"21","size_leaf_vector":"1"}},{"base_weights":[3.0820578E-2,-1.2947794E0,1.0794195E0,-1.5537413E0,4.644712E-1,1.1453965E0,-1.0799721E-2,-1.6667845E-2,4.874208E-2,-3.93391E-3,7.77066E-1,2.195768E-1,1.2731841E0,3.4120241E-3,-2.941337E-3,3.8126956E-3,1.0905842E-2,1.3165926E-2,-1.4283922E-2,1.3391693E-2,5.8832904E-3],"categories":[],"categories_nodes":[],"categories_segments":[],"categories_sizes":[],"default_left":[0,0,0,0,0,0,0,0,0,0,0,0,0,0,0,0,0,0,0,0,0],"id":19,"left_children":[1,3,5,7,9,11,-1,-1,13,-1,15,17,19,-1,-1,-1,-1,-1,-1,-1,-1],"loss_changes":[1.4560426E2,2.1803444E1,9.567131E0,7.4299927E0,2.1043906E0,6.490181E0,0E0,0E0,4.6584386E-1,0E0,2.3593736E-1,1.6611906E1,1.4749298E0,0E0,0E0,0E0,0E0,0E0,0E0,0E0,0E0],"parents":[2147483647,0,0,1,1,2,2,3,3,4,4,5,5,8,8,10,10,11,11,12,12],"right_children":[2,4,6,8,10,12,-1,-1,14,-1,16,18,20,-1,-1,-1,-1,-1,-1,-1,-1],"split_conditions":[9E0,1.5E-1,1E0,5E0,3E0,3.0303031E-2,-1.0799721E-2,-1.6667845E-2,6E0,-3.93391E-3,6E0,1E1,7.8571427E-1,3.4120241E-3,-2.941337E-3,3.8126956E-3,1.0905842E-2,1.3165926E-2,-1.4283922E-2,1.3391693E-2,5.8832904E-3],"split_indices":[0,5,9,1,1,7,0,0,3,0,1,11,6,0,0,0,0,0,0,0,0],"split_type":[0,0,0,0,0,0,0,0,0,0,0,0,0,0,0,0,0,0,0,0,0],"sum_hessian":[1.02744095E2,4.5274708E1,5.7469387E1,3.9567223E1,5.707482E0,5.6221207E1,1.2481798E0,3.6922493E1,2.644731E0,1.4552717E0,4.25221E0,7.148527E0,4.9072678E1,1.4299322E0,1.2147987E0,2.8590038E0,1.3932062E0,4.412384E0,2.736143E0,4.3888638E1,5.184043E0],"tree_param":{"num_deleted":"0","num_feature":"13","num_nodes":"21","size_leaf_vector":"1"}},{"base_weights":[-2.2916213E-2,-1.4242773E0,1.0386916E0,-1.5864316E0,1.1447575E-1,1.1251022E0,-1.2010927E-2,-1.658276E-2,-7.0539437E-4,7.226954E-1,-1.0421177E-2,2.4210347E-1,1.3054577E0,1.1116671E-2,1.0522095E-3,-1.2726281E-2,7.5853965E-3,7.418917E-3,1.4788536E-2],"categories":[],"categories_nodes":[],"categories_segments":[],"categories_sizes":[],"default_left":[0,0,0,0,0,0,0,0,0,0,0,0,0,0,0,0,0,0,0],"id":20,"left_children":[1,3,5,7,9,11,-1,-1,-1,13,-1,15,17,-1,-1,-1,-1,-1,-1],"loss_changes":[1.588174E2,1.1661064E1,1.3109451E1,4.423218E0,4.4946623E0,9.081833E0,0E0,0E0,0E0,8.6205053E-1,0E0,9.755405E0,3.6691895E0,0E0,0E0,0E0,0E0,0E0,0E0],"parents":[2147483647,0,0,1,1,2,2,3,3,4,4,5,5,9,9,11,11,12,12],"right_children":[2,4,6,8,10,12,-1,-1,-1,14,-1,16,18,-1,-1,-1,-1,-1,-1],"split_conditions":[1E0,5E0,1E0,9E0,3E0,3.0303031E-2,-1.2010927E-2,-1.658276E-2,-7.0539437E-4,8E0,-1.0421177E-2,4E0,1.5E1,1.1116671E-2,1.0522095E-3,-1.2726281E-2,7.5853965E-3,7.418917E-3,1.4788536E-2],"split_indices":[2,1,9,3,4,7,0,0,0,0,0,1,0,0,0,0,0,0,0],"split_type":[0,0,0,0,0,0,0,0,0,0,0,0,0,0,0,0,0,0,0],"sum_hessian":[1.0475952E2,4.5007008E1,5.9752514E1,4.068828E1,4.31873E0,5.8012093E1,1.7404219E0,3.8757477E1,1.9308026E0,3.076197E0,1.2425328E0,1.0236726E1,4.7775368E1,1.3962796E0,1.6799173E0,2.2304528E0,8.006273E0,1.2482791E1,3.5292576E1],"tree_param":{"num_deleted":"0","num_feature":"13","num_nodes":"19","size_leaf_vector":"1"}},{"base_weights":[-1.2271336E-2,-1.4404634E0,1.0141525E0,-1.6091701E0,-6.475634E-2,-3.9110154E-1,1.1418593E0,-1.6431E-2,-4.410393E-3,8.076787E-3,-6.019772E-1,-1.2649407E-2,5.0037223E-1,5.878911E-1,1.4181625E0,1.3670197E-3,-1.1540915E-2,1.0560581E-2,-3.25533E-3,-1.5061112E-3,7.6832166E-3,1.4584745E-2,2.3924473E-3],"categories":[],"categories_nodes":[],"categories_segments":[],"categories_sizes":[],"default_left":[0,0,0,0,0,0,0,0,0,0,0,0,0,0,0,0,0,0,0,0,0,0,0],"id":21,"left_children":[1,3,5,7,9,11,13,-1,-1,-1,15,-1,17,19,21,-1,-1,-1,-1,-1,-1,-1,-1],"loss_changes":[1.5337741E2,1.0049255E1,1.1372803E1,8.181915E-1,3.2143548E0,5.164356E0,7.7480392E0,0E0,0E0,0E0,1.8606614E0,0E0,1.9941273E0,2.8295007E0,1.3952408E0,0E0,0E0,0E0,0E0,0E0,0E0,0E0,0E0],"parents":[2147483647,0,0,1,1,2,2,3,3,4,4,5,5,6,6,10,10,12,12,13,13,14,14],"right_children":[2,4,6,8,10,12,14,-1,-1,-1,16,-1,18,20,22,-1,-1,-1,-1,-1,-1,-1,-1],"split_conditions":[1E0,5E0,3E0,9E0,8E0,7.8947365E-2,1.5E1,-1.6431E-2,-4.410393E-3,8.076787E-3,5.714286E-1,-1.2649407E-2,9.52381E-2,3.529412E-1,3E1,1.3670197E-3,-1.1540915E-2,1.0560581E-2,-3.25533E-3,-1.5061112E-3,7.6832166E-3,1.4584745E-2,2.3924473E-3],"split_indices":[2,1,1,0,0,7,0,0,0,0,8,0,7,8,2,0,0,0,0,0,0,0,0],"split_type":[0,0,0,0,0,0,0,0,0,0,0,0,0,0,0,0,0,0,0,0,0,0,0],"sum_hessian":[1.026315E2,4.274778E1,5.9883717E1,3.7926987E1,4.820795E0,4.816928E0,5.506679E1,3.646131E1,1.4656733E0,1.6453477E0,3.1754475E0,2.220965E0,2.595963E0,1.9366346E1,3.5700443E1,1.6800691E0,1.4953785E0,1.3852626E0,1.2107005E0,3.834992E0,1.5531355E1,3.429077E1,1.4096729E0],"tree_param":{"num_deleted":"0","num_feature":"13","num_nodes":"23","size_leaf_vector":"1"}},{"base_weights":[-3.3432703E-2,-1.3952899E0,9.6870196E-1,-1.5537479E0,-1.4546452E-1,1.0665485E0,-1.2536998E-2,-1.6320756E-2,1.1691962E-3,5.650301E-1,-1.21284975E-2,-1.0613586E-1,1.1739553E0,8.02863E-3,1.1927077E-3,-1.1696351E-2,6.3617914E-3,5.3282115E-3,1.3263415E-2],"categories":[],"categories_nodes":[],"categories_segments":[],"categories_sizes":[],"default_left":[0,0,0,0,0,0,0,0,0,0,0,0,0,0,0,0,0,0,0],"id":22,"left_children":[1,3,5,7,9,11,-1,-1,-1,13,-1,15,17,-1,-1,-1,-1,-1,-1],"loss_changes":[1.419915E2,8.506691E0,1.4374821E1,5.298271E0,5.2846336E0,7.425926E0,0E0,0E0,0E0,3.6258054E-1,0E0,5.3078585E0,4.48967E0,0E0,0E0,0E0,0E0,0E0,0E0],"parents":[2147483647,0,0,1,1,2,2,3,3,4,4,5,5,9,9,11,11,12,12],"right_children":[2,4,6,8,10,12,-1,-1,-1,14,-1,16,18,-1,-1,-1,-1,-1,-1],"split_conditions":[1E0,5E0,1E0,9E0,1E1,3E0,-1.2536998E-2,-1.6320756E-2,1.1691962E-3,8E0,-1.21284975E-2,7.8947365E-2,1.2E1,8.02863E-3,1.1927077E-3,-1.1696351E-2,6.3617914E-3,5.3282115E-3,1.3263415E-2],"split_indices":[2,1,9,0,0,1,0,0,0,0,0,7,0,0,0,0,0,0,0],"split_type":[0,0,0,0,0,0,0,0,0,0,0,0,0,0,0,0,0,0,0],"sum_hessian":[1.0205068E2,4.3094635E1,5.8956043E1,3.802988E1,5.064755E0,5.6967987E1,1.9880575E0,3.6348797E1,1.681083E0,3.323284E0,1.7414709E0,4.7809277E0,5.2187057E1,1.644666E0,1.678618E0,1.7286575E0,3.05227E0,1.0885415E1,4.1301643E1],"tree_param":{"num_deleted":"0","num_feature":"13","num_nodes":"19","size_leaf_vector":"1"}},{"base_weights":[-2.8143194E-2,-1.3606653E0,9.7218746E-1,-1.5922017E0,2.1899238E-1,-1.9487236E-1,1.1798974E0,-1.624542E-2,-4.391074E-3,1.0967755E-2,-2.1461414E-1,-1.4065408E-2,6.4791936E-1,1.2559038E0,-1.0645977E-2,2.3839837E-3,-6.624122E-3,4.0273683E-4,1.2505613E-2,6.572091E-3,1.388171E-2],"categories":[],"categories_nodes":[],"categories_segments":[],"categories_sizes":[],"default_left":[0,0,0,0,0,0,0,0,0,0,0,0,0,0,0,0,0,0,0,0,0],"id":23,"left_children":[1,3,5,7,9,11,13,-1,-1,-1,15,-1,17,19,-1,-1,-1,-1,-1,-1,-1],"loss_changes":[1.4269135E2,1.7134201E1,1.5056255E1,7.838211E-1,2.802982E0,1.1224339E1,1.0218803E1,0E0,0E0,0E0,1.2435703E0,0E0,2.3814497E0,3.1117325E0,0E0,0E0,0E0,0E0,0E0,0E0,0E0],"parents":[2147483647,0,0,1,1,2,2,3,3,4,4,5,5,6,6,10,10,12,12,13,13],"right_children":[2,4,6,8,10,12,14,-1,-1,-1,16,-1,18,20,-1,-1,-1,-1,-1,-1,-1],"split_conditions":[1E0,5E0,3.0303031E-2,9E0,8E0,4E0,1E0,-1.624542E-2,-4.391074E-3,1.0967755E-2,5.714286E-1,-1.4065408E-2,5E-1,8E0,-1.0645977E-2,2.3839837E-3,-6.624122E-3,4.0273683E-4,1.2505613E-2,6.572091E-3,1.388171E-2],"split_indices":[2,1,7,3,0,1,9,0,0,0,8,0,5,3,0,0,0,0,0,0,0],"split_type":[0,0,0,0,0,0,0,0,0,0,0,0,0,0,0,0,0,0,0,0,0],"sum_hessian":[1.0505587E2,4.489365E1,6.016222E1,3.9147686E1,5.745966E0,9.099072E0,5.106315E1,3.7681984E1,1.4657028E0,1.3941846E0,4.3517814E0,3.4582677E0,5.6408043E0,4.9816635E1,1.2465134E0,2.3957524E0,1.9560289E0,3.339951E0,2.3008535E0,1.0094344E1,3.972229E1],"tree_param":{"num_deleted":"0","num_feature":"13","num_nodes":"21","size_leaf_vector":"1"}},{"base_weights":[-5.2744616E-2,-1.3227842E0,9.4640416E-1,-1.544165E0,2.940559E-1,-4.0260726E-1,1.0717856E0,-1.6148066E-2,-6.504019E-4,9.983074E-3,-7.401465E-3,-1.2057467E-2,3.2374895E-1,1.140669E0,-1.0526129E-2,1.0401983E-2,-5.025806E-3,4.1617984E-3,1.2960903E-2],"categories":[],"categories_nodes":[],"categories_segments":[],"categories_sizes":[],"default_left":[0,0,0,0,0,0,0,0,0,0,0,0,0,0,0,0,0,0,0],"id":24,"left_children":[1,3,5,7,9,11,13,-1,-1,-1,-1,-1,15,17,-1,-1,-1,-1,-1],"loss_changes":[1.353196E2,1.7254486E1,1.0531773E1,4.225357E0,5.467794E0,3.7768323E0,9.235989E0,0E0,0E0,0E0,0E0,0E0,2.7941234E0,5.503372E0,0E0,0E0,0E0,0E0,0E0],"parents":[2147483647,0,0,1,1,2,2,3,3,4,4,5,5,6,6,12,12,13,13],"right_children":[2,4,6,8,10,12,14,-1,-1,-1,-1,-1,16,18,-1,-1,-1,-1,-1],"split_conditions":[1E0,5E0,3E0,9E0,3E0,7.8947365E-2,1E0,-1.6148066E-2,-6.504019E-4,9.983074E-3,-7.401465E-3,-1.2057467E-2,9.52381E-2,1.2E1,-1.0526129E-2,1.0401983E-2,-5.025806E-3,4.1617984E-3,1.2960903E-2],"split_indices":[2,1,1,3,4,7,9,0,0,0,0,0,7,0,0,0,0,0,0],"split_type":[0,0,0,0,0,0,0,0,0,0,0,0,0,0,0,0,0,0,0],"sum_hessian":[1.0465178E2,4.5936718E1,5.871506E1,4.0443996E1,5.4927225E0,4.805063E0,5.391E1,3.8512924E1,1.9310725E0,3.2882562E0,2.204466E0,1.9684898E0,2.836573E0,5.266539E1,1.2446098E0,1.3806744E0,1.4558985E0,9.952062E0,4.271333E1],"tree_param":{"num_deleted":"0","num_feature":"13","num_nodes":"19","size_leaf_vector":"1"}},{"base_weights":[2.2716735E-2,-1.3770701E0,1.012582E0,-1.5303651E0,-2.0271267E-1,1.0942211E0,-1.1891119E-2,-1.6006356E-2,-2.2398862E-3,1.1174085E-2,-8.045984E-1,1.6048485E-1,1.2667805E0,-9.31423E-3,-2.2694808E-3,-7.562679E-3,1.1238138E-2,5.4955464E-3,1.4083043E-2],"categories":[],"categories_nodes":[],"categories_segments":[],"categories_sizes":[],"default_left":[0,0,0,0,0,0,0,0,0,0,0,0,0,0,0,0,0,0,0],"id":25,"left_children":[1,3,5,7,9,11,-1,-1,-1,-1,13,15,17,-1,-1,-1,-1,-1,-1],"loss_changes":[1.4955655E2,7.739937E0,1.2663261E1,3.2585068E0,5.9174314E0,9.701576E0,0E0,0E0,0E0,0E0,1.4901257E-1,1.0329147E1,4.4778824E0,0E0,0E0,0E0,0E0,0E0,0E0],"parents":[2147483647,0,0,1,1,2,2,3,3,4,4,5,5,10,10,11,11,12,12],"right_children":[2,4,6,8,10,12,-1,-1,-1,-1,14,16,18,-1,-1,-1,-1,-1,-1],"split_conditions":[1E0,9E0,1E0,5E0,6E0,3.0303031E-2,-1.1891119E-2,-1.6006356E-2,-2.2398862E-3,1.1174085E-2,1.2E1,6E0,8E0,-9.31423E-3,-2.2694808E-3,-7.562679E-3,1.1238138E-2,5.4955464E-3,1.4083043E-2],"split_indices":[2,0,9,1,11,7,0,0,0,0,11,1,3,0,0,0,0,0,0],"split_type":[0,0,0,0,0,0,0,0,0,0,0,0,0,0,0,0,0,0,0],"sum_hessian":[1.0592994E2,4.3717308E1,6.2212627E1,3.8401417E1,5.31589E0,6.047328E1,1.7393479E0,3.622748E1,2.173938E0,1.3964754E0,3.9194145E0,9.733635E0,5.0739647E1,2.7116346E0,1.2077799E0,5.09752E0,4.636115E0,9.166754E0,4.157289E1],"tree_param":{"num_deleted":"0","num_feature":"13","num_nodes":"19","size_leaf_vector":"1"}},{"base_weights":[6.7034415E-3,-1.3740711E0,9.3828326E-1,-1.4834626E0,7.7556893E-3,1.126904E0,-2.5015363E-1,-1.5889702E-2,-4.099846E-1,1.1560161E-1,1.2301494E0,-8.221823E-1,7.789E-1,5.5597965E-3,-1.2117809E-2,1.2398181E-2,-9.23264E-3,4.9233185E-3,1.3275706E-2,-1.4817179E-2,1.9945395E-3,1.0496246E-2,1.8655262E-3],"categories":[],"categories_nodes":[],"categories_segments":[],"categories_sizes":[],"default_left":[0,0,0,0,0,0,0,0,0,0,0,0,0,0,0,0,0,0,0,0,0,0,0],"id":26,"left_children":[1,3,5,7,-1,9,11,-1,13,15,17,19,21,-1,-1,-1,-1,-1,-1,-1,-1,-1,-1],"loss_changes":[1.3073265E2,1.0779434E1,1.3885204E1,3.800583E0,0E0,5.345093E0,6.015079E0,0E0,4.4420295E0,8.119479E0,2.7665482E0,4.5775027E0,4.096632E-1,0E0,0E0,0E0,0E0,0E0,0E0,0E0,0E0,0E0,0E0],"parents":[2147483647,0,0,1,1,2,2,3,3,5,5,6,6,8,8,9,9,10,10,11,11,12,12],"right_children":[2,4,6,8,-1,10,12,-1,14,16,18,20,22,-1,-1,-1,-1,-1,-1,-1,-1,-1,-1],"split_conditions":[8E0,5E0,7.8571427E-1,1.5E-1,7.7556893E-3,2.7027028E-2,1.5E1,-1.5889702E-2,2.0833333E-1,8E0,1.2E1,9.0909094E-1,1E0,5.5597965E-3,-1.2117809E-2,1.2398181E-2,-9.23264E-3,4.9233185E-3,1.3275706E-2,-1.4817179E-2,1.9945395E-3,1.0496246E-2,1.8655262E-3],"split_indices":[0,1,6,5,0,7,11,0,5,3,0,6,12,0,0,0,0,0,0,0,0,0,0],"split_type":[0,0,0,0,0,0,0,0,0,0,0,0,0,0,0,0,0,0,0,0,0,0,0],"sum_hessian":[9.963221E1,3.9947536E1,5.968467E1,3.830801E1,1.6395273E0,5.1554123E1,8.1305485E0,3.4442585E1,3.8654253E0,4.9720345E0,4.6582085E1,5.3549037E0,2.7756445E0,1.8922814E0,1.9731438E0,2.2950232E0,2.6770115E0,6.1393747E0,4.044271E1,2.98047E0,2.3744338E0,1.3751678E0,1.4004768E0],"tree_param":{"num_deleted":"0","num_feature":"13","num_nodes":"23","size_leaf_vector":"1"}},{"base_weights":[4.1160844E-3,-1.2651815E0,9.687047E-1,-1.4798706E0,4.111133E-1,1.0515757E0,-1.1616921E-2,-1.5819533E-2,-3.365803E-1,-5.9155202E-3,9.502297E-3,1.1360365E0,-7.823921E-3,3.697703E-3,-1.0945508E-2,1.240446E-2,4.6956534E-3],"categories":[],"categories_nodes":[],"categories_segments":[],"categories_sizes":[],"default_left":[0,0,0,0,0,0,0,0,0,0,0,0,0,0,0,0,0],"id":27,"left_children":[1,3,5,7,9,11,-1,-1,13,-1,-1,15,-1,-1,-1,-1,-1],"loss_changes":[1.2992021E2,1.7098587E1,1.1865952E1,4.233551E0,3.797213E0,9.959518E0,0E0,0E0,2.8769615E0,0E0,0E0,3.3413925E0,0E0,0E0,0E0,0E0,0E0],"parents":[2147483647,0,0,1,1,2,2,3,3,4,4,5,5,8,8,11,11],"right_children":[2,4,6,8,10,12,-1,-1,14,-1,-1,16,-1,-1,-1,-1,-1],"split_conditions":[9E0,5E0,1E0,1.5E-1,6.363636E-1,3E1,-1.1616921E-2,-1.5819533E-2,2.5531915E-1,-5.9155202E-3,9.502297E-3,7.8571427E-1,-7.823921E-3,3.697703E-3,-1.0945508E-2,1.240446E-2,4.6956534E-3],"split_indices":[0,1,9,5,8,2,0,0,5,0,0,6,0,0,0,0,0],"split_type":[0,0,0,0,0,0,0,0,0,0,0,0,0,0,0,0,0],"sum_hessian":[1.0411261E2,4.4821102E1,5.9291508E1,3.9836304E1,4.984799E0,5.75589E1,1.7326062E0,3.6218704E1,3.6175976E0,1.70903E0,3.2757688E0,5.538861E1,2.1702902E0,2.1376681E0,1.4799296E0,4.71421E1,8.246508E0],"tree_param":{"num_deleted":"0","num_feature":"13","num_nodes":"17","size_leaf_vector":"1"}},{"base_weights":[-5.981073E-3,-1.289443E0,1.0147688E0,-1.4705871E0,2.7942616E-1,1.0909953E0,-1.092825E-2,-1.572044E-2,-3.3675256E-1,8.3364177E-1,-6.029887E-3,1.1853508E0,-1.5847345E-1,3.6471598E-3,-1.0887139E-2,2.4834753E-3,1.0774533E-2,1.3037691E-2,3.8414155E-3,8.323503E-3,-1.218423E-2],"categories":[],"categories_nodes":[],"categories_segments":[],"categories_sizes":[],"default_left":[0,0,0,0,0,0,0,0,0,0,0,0,0,0,0,0,0,0,0,0,0],"id":28,"left_children":[1,3,5,7,9,11,-1,-1,13,15,-1,17,19,-1,-1,-1,-1,-1,-1,-1,-1],"loss_changes":[1.337335E2,1.3261597E1,1.0327419E1,4.152252E0,3.2026572E0,6.7165756E0,0E0,0E0,2.8314695E0,2.7622342E-1,0E0,4.395569E0,6.024118E0,0E0,0E0,0E0,0E0,0E0,0E0,0E0,0E0],"parents":[2147483647,0,0,1,1,2,2,3,3,4,4,5,5,8,8,9,9,11,11,12,12],"right_children":[2,4,6,8,10,12,-1,-1,14,16,-1,18,20,-1,-1,-1,-1,-1,-1,-1,-1],"split_conditions":[9E0,5E0,1E0,1.5E-1,8E0,4.8387095E-1,-1.092825E-2,-1.572044E-2,2.5531915E-1,1E0,-6.029887E-3,7.8571427E-1,1.9E1,3.6471598E-3,-1.0887139E-2,2.4834753E-3,1.0774533E-2,1.3037691E-2,3.8414155E-3,8.323503E-3,-1.218423E-2],"split_indices":[0,1,9,5,0,5,0,0,5,4,0,6,2,0,0,0,0,0,0,0,0],"split_type":[0,0,0,0,0,0,0,0,0,0,0,0,0,0,0,0,0,0,0,0,0],"sum_hessian":[1.0008056E2,4.4218384E1,5.586217E1,3.9697495E1,4.5208898E0,5.437781E1,1.4843591E0,3.608232E1,3.6151724E0,2.8107948E0,1.7100947E0,5.0607433E1,3.7703793E0,2.136818E0,1.4783543E0,1.4201607E0,1.3906342E0,4.3544346E1,7.0630875E0,2.0597162E0,1.7106631E0],"tree_param":{"num_deleted":"0","num_feature":"13","num_nodes":"21","size_leaf_vector":"1"}},{"base_weights":[-3.3308186E-2,-1.3397446E0,9.011201E-1,-1.533224E0,7.5783476E-2,9.9129474E-1,-1.2132283E-2,-1.5645305E-2,-4.3586707E-3,6.785637E-1,-1.1134323E-2,-4.0647018E-1,1.1197972E0,-6.147677E-4,1.1991391E-2,-1.2237864E-2,4.400513E-3,8.450246E-3,1.4610186E-2],"categories":[],"categories_nodes":[],"categories_segments":[],"categories_sizes":[],"default_left":[0,0,0,0,0,0,0,0,0,0,0,0,0,0,0,0,0,0,0],"id":29,"left_children":[1,3,5,7,9,11,-1,-1,-1,13,-1,15,17,-1,-1,-1,-1,-1,-1],"loss_changes":[1.2929094E2,1.2208702E1,1.2979187E1,6.541519E-1,5.244528E0,1.1194561E1,0E0,0E0,0E0,1.9140897E0,0E0,4.529064E0,3.9242706E0,0E0,0E0,0E0,0E0,0E0,0E0],"parents":[2147483647,0,0,1,1,2,2,3,3,4,4,5,5,9,9,11,11,12,12],"right_children":[2,4,6,8,10,12,-1,-1,-1,14,-1,16,18,-1,-1,-1,-1,-1,-1],"split_conditions":[1E0,5E0,1E0,9E0,1E1,3E0,-1.2132283E-2,-1.5645305E-2,-4.3586707E-3,7.567568E-1,-1.1134323E-2,7.8947365E-2,4E0,-6.147677E-4,1.1991391E-2,-1.2237864E-2,4.400513E-3,8.450246E-3,1.4610186E-2],"split_indices":[2,1,9,3,0,1,0,0,0,6,0,7,4,0,0,0,0,0,0],"split_type":[0,0,0,0,0,0,0,0,0,0,0,0,0,0,0,0,0,0,0],"sum_hessian":[1.03920296E2,4.315332E1,6.0766975E1,3.7891087E1,5.2622333E0,5.8790775E1,1.976202E0,3.642616E1,1.4649279E0,3.7771194E0,1.4851139E0,4.767706E0,5.4023067E1,1.9239596E0,1.8531599E0,2.198953E0,2.568753E0,3.1851086E1,2.2171984E1],"tree_param":{"num_deleted":"0","num_feature":"13","num_nodes":"19","size_leaf_vector":"1"}},{"base_weights":[2.6641893E-3,-1.3304794E0,9.553303E-1,-1.4842783E0,2.1461465E-3,-1.4673261E-1,1.1904486E0,-1.5553599E-2,-6.7241304E-4,6.961095E-1,-1.13186985E-2,-1.3863413E-2,5.916017E-1,5.257308E-1,1.3231676E0,9.455803E-4,1.0774735E-2,9.23718E-3,-5.434958E-3,1.2202393E-3,1.11006675E-2,1.4096435E-2,3.9431453E-3],"categories":[],"categories_nodes":[],"categories_segments":[],"categories_sizes":[],"default_left":[0,0,0,0,0,0,0,0,0,0,0,0,0,0,0,0,0,0,0,0,0,0,0],"id":30,"left_children":[1,3,5,7,9,11,13,-1,-1,15,-1,-1,17,19,21,-1,-1,-1,-1,-1,-1,-1,-1],"loss_changes":[1.3407361E2,9.020889E0,1.6127731E1,3.868744E0,5.1563544E0,1.1542952E1,3.7905426E0,0E0,0E0,8.3017397E-1,0E0,0E0,3.5342553E0,2.2524743E0,2.7959824E0,0E0,0E0,0E0,0E0,0E0,0E0,0E0,0E0],"parents":[2147483647,0,0,1,1,2,2,3,3,4,4,5,5,6,6,9,9,12,12,13,13,14,14],"right_children":[2,4,6,8,10,12,14,-1,-1,16,-1,-1,18,20,22,-1,-1,-1,-1,-1,-1,-1,-1],"split_conditions":[1E0,5E0,3.0303031E-2,9E0,1E1,4E0,8E0,-1.5553599E-2,-6.7241304E-4,9E0,-1.13186985E-2,-1.3863413E-2,1E1,4.6153846E-1,7.7272725E-1,9.455803E-4,1.0774735E-2,9.23718E-3,-5.434958E-3,1.2202393E-3,1.11006675E-2,1.4096435E-2,3.9431453E-3],"split_indices":[2,1,7,3,0,1,3,0,0,0,0,0,11,8,6,0,0,0,0,0,0,0,0],"split_type":[0,0,0,0,0,0,0,0,0,0,0,0,0,0,0,0,0,0,0,0,0,0,0],"sum_hessian":[1.035656E2,4.2998165E1,6.0567432E1,3.844716E1,4.551005E0,1.0715751E1,4.985168E1,3.651774E1,1.9294214E0,3.0628457E0,1.488159E0,3.672401E0,7.0433497E0,9.122615E0,4.0729065E1,1.6725564E0,1.3902894E0,5.5930963E0,1.4502537E0,6.110091E0,3.0125232E0,3.678662E1,3.942444E0],"tree_param":{"num_deleted":"0","num_feature":"13","num_nodes":"23","size_leaf_vector":"1"}},{"base_weights":[4.519955E-3,-1.2884922E0,9.704114E-1,-1.4744406E0,7.766448E-2,1.0662863E0,-1.2060654E-2,-1.5457756E-2,-6.6797965E-4,5.4722065E-1,-1.013979E-2,4.635167E-2,1.2671169E0,1.7140971E-3,8.216385E-3,-1.2832829E-2,6.708808E-3,5.1222723E-3,1.3750464E-2],"categories":[],"categories_nodes":[],"categories_segments":[],"categories_sizes":[],"default_left":[0,0,0,0,0,0,0,0,0,0,0,0,0,0,0,0,0,0,0],"id":31,"left_children":[1,3,5,7,9,11,-1,-1,-1,13,-1,15,17,-1,-1,-1,-1,-1,-1],"loss_changes":[1.2946516E2,1.1375076E1,1.3667313E1,3.8195724E0,3.7639263E0,1.1690926E1,0E0,0E0,0E0,3.775977E-1,0E0,9.559056E0,3.197258E0,0E0,0E0,0E0,0E0,0E0,0E0],"parents":[2147483647,0,0,1,1,2,2,3,3,4,4,5,5,9,9,11,11,12,12],"right_children":[2,4,6,8,10,12,-1,-1,-1,14,-1,16,18,-1,-1,-1,-1,-1,-1],"split_conditions":[1E0,5E0,1E0,9E0,1.1E1,3.0303031E-2,-1.2060654E-2,-1.5457756E-2,-6.6797965E-4,9E0,-1.013979E-2,4E0,1.2E1,1.7140971E-3,8.216385E-3,-1.2832829E-2,6.708808E-3,5.1222723E-3,1.3750464E-2],"split_indices":[2,1,9,3,3,7,0,0,0,0,0,1,0,0,0,0,0,0,0],"split_type":[0,0,0,0,0,0,0,0,0,0,0,0,0,0,0,0,0,0,0],"sum_hessian":[1.016614E2,4.3326893E1,5.8334503E1,3.8066395E1,5.2604985E0,5.6361824E1,1.9726813E0,3.613695E1,1.9294424E0,4.027039E0,1.2334595E0,9.47468E0,4.6887142E1,2.38519E0,1.6418492E0,2.6909003E0,6.783779E0,6.5838327E0,4.030331E1],"tree_param":{"num_deleted":"0","num_feature":"13","num_nodes":"19","size_leaf_vector":"1"}},{"base_weights":[2.0820007E-2,-1.2672527E0,1.0437756E0,-1.4402912E0,2.7290142E-1,1.1440341E0,-1.20398635E-2,-1.5367003E-2,-3.2844228E-1,8.178445E-1,-5.9360564E-3,4.0880987E-1,1.2410328E0,-1.1346372E-2,5.4250485E-3,2.3394886E-3,1.0662183E-2,1.205727E-2,-6.339031E-3,5.4013543E-3,1.31084435E-2],"categories":[],"categories_nodes":[],"categories_segments":[],"categories_sizes":[],"default_left":[0,0,0,0,0,0,0,0,0,0,0,0,0,0,0,0,0,0,0,0,0],"id":32,"left_children":[1,3,5,7,9,11,-1,-1,13,15,-1,17,19,-1,-1,-1,-1,-1,-1,-1,-1],"loss_changes":[1.3766206E2,1.2719681E1,1.4497616E1,3.9695282E0,3.088413E0,3.5039062E0,0E0,0E0,3.847115E0,3.0233288E-1,0E0,7.450979E0,1.6993332E0,0E0,0E0,0E0,0E0,0E0,0E0,0E0,0E0],"parents":[2147483647,0,0,1,1,2,2,3,3,4,4,5,5,8,8,9,9,11,11,12,12],"right_children":[2,4,6,8,10,12,-1,-1,14,16,-1,18,20,-1,-1,-1,-1,-1,-1,-1,-1],"split_conditions":[9E0,5E0,1E0,1.5E-1,8E0,2.7027028E-2,-1.20398635E-2,-1.5367003E-2,1.724138E-1,1E0,-5.9360564E-3,1E1,1.2E1,-1.1346372E-2,5.4250485E-3,2.3394886E-3,1.0662183E-2,1.205727E-2,-6.339031E-3,5.4013543E-3,1.31084435E-2],"split_indices":[0,1,9,5,0,7,0,0,7,4,0,11,0,0,0,0,0,0,0,0,0],"split_type":[0,0,0,0,0,0,0,0,0,0,0,0,0,0,0,0,0,0,0,0,0],"sum_hessian":[1.0247228E2,4.525271E1,5.7219574E1,4.074032E1,4.512393E0,5.524641E1,1.9731627E0,3.7137947E1,3.6023695E0,2.804692E0,1.7077011E0,7.0469565E0,4.8199455E1,1.7135004E0,1.8888693E0,1.4165301E0,1.3881618E0,3.9056435E0,3.141313E0,5.15737E0,4.3042084E1],"tree_param":{"num_deleted":"0","num_feature":"13","num_nodes":"21","size_leaf_vector":"1"}},{"base_weights":[2.491652E-3,-1.3115915E0,1.003827E0,-1.4618756E0,-6.446035E-2,-4.089033E-2,1.1784098E0,-1.5271257E-2,-2.3325775E-3,1.0865915E-2,-6.73206E-1,-1.2867345E-2,7.3218817E-1,1.259753E0,1.3478354E-1,-1.3158509E-2,5.889721E-3,-3.47902E-3,1.0520246E-2,5.7830554E-3,1.3677084E-2,1.0773685E-2,-8.128327E-3],"categories":[],"categories_nodes":[],"categories_segments":[],"categories_sizes":[],"default_left":[0,0,0,0,0,0,0,0,0,0,0,0,0,0,0,0,0,0,0,0,0,0,0],"id":33,"left_children":[1,3,5,7,9,11,13,-1,-1,-1,15,-1,17,19,21,-1,-1,-1,-1,-1,-1,-1,-1],"loss_changes":[1.3468912E2,8.202621E0,1.064349E1,2.8072739E0,4.8003697E0,9.88405E0,4.058449E0,0E0,0E0,0E0,4.35666E0,0E0,2.5653064E0,2.5994186E0,5.0927672E0,0E0,0E0,0E0,0E0,0E0,0E0,0E0,0E0],"parents":[2147483647,0,0,1,1,2,2,3,3,4,4,5,5,6,6,10,10,12,12,13,13,14,14],"right_children":[2,4,6,8,10,12,14,-1,-1,-1,16,-1,18,20,22,-1,-1,-1,-1,-1,-1,-1,-1],"split_conditions":[1E0,9E0,2.7027028E-2,5E0,6E0,4E0,7.7272725E-1,-1.5271257E-2,-2.3325775E-3,1.0865915E-2,1.7E1,-1.2867345E-2,2E0,1.2E1,5.882353E-2,-1.3158509E-2,5.889721E-3,-3.47902E-3,1.0520246E-2,5.7830554E-3,1.3677084E-2,1.0773685E-2,-8.128327E-3],"split_indices":[2,0,7,1,11,1,6,0,0,0,0,0,2,0,5,0,0,0,0,0,0,0,0],"split_type":[0,0,0,0,0,0,0,0,0,0,0,0,0,0,0,0,0,0,0,0,0,0,0],"sum_hessian":[1.00359375E2,4.3267826E1,5.7091545E1,3.8460945E1,4.806883E0,8.284177E0,4.880737E1,3.6290638E1,2.1703057E0,1.3912525E0,3.41563E0,2.9177258E0,5.366451E0,4.5086136E1,3.7212327E0,2.2350953E0,1.1805348E0,1.2060069E0,4.160444E0,7.0351343E0,3.8051003E1,1.7969244E0,1.9243083E0],"tree_param":{"num_deleted":"0","num_feature":"13","num_nodes":"23","size_leaf_vector":"1"}},{"base_weights":[1.0475333E-2,-1.2035899E0,9.515028E-1,-1.4466302E0,6.786975E-2,1.0120888E0,-9.947244E-3,-1.515134E-2,-4.6805027E-1,1.174279E-2,-4.488626E-1,-8.569995E-2,1.1086746E0,5.6009525E-3,-1.1209186E-2,-1.2209924E-2,1.7818193E-3,-1.152174E-2,7.0975046E-3,6.184225E-3,1.2957705E-2],"categories":[],"categories_nodes":[],"categories_segments":[],"categories_sizes":[],"default_left":[0,0,0,0,0,0,0,0,0,0,0,0,0,0,0,0,0,0,0,0,0],"id":34,"left_children":[1,3,5,7,9,11,-1,-1,13,-1,15,17,19,-1,-1,-1,-1,-1,-1,-1,-1],"loss_changes":[1.1596435E2,1.3795464E1,7.7485313E0,1.7884369E0,5.139907E0,6.0269012E0,0E0,0E0,3.2352648E0,0E0,3.2305946E0,5.4431443E0,3.9217758E0,0E0,0E0,0E0,0E0,0E0,0E0,0E0,0E0],"parents":[2147483647,0,0,1,1,2,2,3,3,4,4,5,5,8,8,10,10,11,11,12,12],"right_children":[2,4,6,8,10,12,-1,-1,14,-1,16,18,20,-1,-1,-1,-1,-1,-1,-1,-1],"split_conditions":[9E0,4E0,1E0,1.5E-1,5.16129E-1,4.5045044E-2,-9.947244E-3,-1.515134E-2,2.0833333E-1,1.174279E-2,1E0,7.8947365E-2,1.6E1,5.6009525E-3,-1.1209186E-2,-1.2209924E-2,1.7818193E-3,-1.152174E-2,7.0975046E-3,6.184225E-3,1.2957705E-2],"split_indices":[0,1,9,5,6,8,0,0,5,0,4,7,0,0,0,0,0,0,0,0,0],"split_type":[0,0,0,0,0,0,0,0,0,0,0,0,0,0,0,0,0,0,0,0,0],"sum_hessian":[9.950089E1,4.3325516E1,5.6175373E1,3.6257168E1,7.0683494E0,5.4944912E1,1.2304575E0,3.3372673E1,2.884496E0,1.8451242E0,5.223225E0,4.452363E0,5.049255E1,1.1754628E0,1.7090333E0,1.9163065E0,3.3069189E0,1.7105477E0,2.7418156E0,1.5136186E1,3.5356365E1],"tree_param":{"num_deleted":"0","num_feature":"13","num_nodes":"21","size_leaf_vector":"1"}},{"base_weights":[2.0773502E-2,-1.1896968E0,9.013818E-1,-1.4394387E0,2.4068786E-1,9.801612E-1,-1.1394122E-2,-1.5106706E-2,-7.52335E-4,8.065135E-1,-4.7637817E-1,2.455619E-1,1.152935E0,1.290843E-2,-2.8497537E-3,1.3445123E-3,-9.949231E-3,-1.263628E-2,7.844385E-3,6.60713E-3,1.2935046E-2],"categories":[],"categories_nodes":[],"categories_segments":[],"categories_sizes":[],"default_left":[0,0,0,0,0,0,0,0,0,0,0,0,0,0,0,0,0,0,0,0,0],"id":35,"left_children":[1,3,5,7,9,11,-1,-1,-1,13,15,17,19,-1,-1,-1,-1,-1,-1,-1,-1],"loss_changes":[1.1187985E2,1.6138721E1,1.0882767E1,3.5576096E0,3.398006E0,7.208153E0,0E0,0E0,0E0,2.7589958E0,1.3705943E0,1.1164728E1,2.4329567E0,0E0,0E0,0E0,0E0,0E0,0E0,0E0,0E0],"parents":[2147483647,0,0,1,1,2,2,3,3,4,4,5,5,9,9,10,10,11,11,12,12],"right_children":[2,4,6,8,10,12,-1,-1,-1,14,16,18,20,-1,-1,-1,-1,-1,-1,-1,-1],"split_conditions":[1E0,5E0,1E0,9E0,3E0,3.0303031E-2,-1.1394122E-2,-1.5106706E-2,-7.52335E-4,8.4615386E-1,5.714286E-1,4E0,1.5E1,1.290843E-2,-2.8497537E-3,1.3445123E-3,-9.949231E-3,-1.263628E-2,7.844385E-3,6.60713E-3,1.2935046E-2],"split_indices":[2,1,9,3,4,7,0,0,0,6,8,1,0,0,0,0,0,0,0,0,0],"split_type":[0,0,0,0,0,0,0,0,0,0,0,0,0,0,0,0,0,0,0,0,0],"sum_hessian":[1.02951836E2,4.320792E1,5.974392E1,3.6779903E1,6.4280148E0,5.802378E1,1.7201382E0,3.4852707E1,1.9271982E0,3.523184E0,2.9048307E0,1.1509407E1,4.6514374E1,2.3138213E0,1.2093627E0,1.6738284E0,1.2310023E0,2.6744242E0,8.834983E0,1.1599063E1,3.4915314E1],"tree_param":{"num_deleted":"0","num_feature":"13","num_nodes":"21","size_leaf_vector":"1"}},{"base_weights":[3.8547274E-2,-1.3161381E0,9.5888376E-1,-1.4787651E0,2.416294E-1,1.0492599E0,-1.1770125E-2,-4.09909E-3,-1.5099724E-2,-3.5053391E-3,5.3778046E-1,1.4431103E-1,1.1875968E0,1.0569263E-2,-2.661576E-3,1.2379166E-2,-1.1407671E-2,1.2555737E-2,4.143751E-3],"categories":[],"categories_nodes":[],"categories_segments":[],"categories_sizes":[],"default_left":[0,0,0,0,0,0,0,0,0,0,0,0,0,0,0,0,0,0,0],"id":36,"left_children":[1,3,5,7,9,11,-1,-1,-1,-1,13,15,17,-1,-1,-1,-1,-1,-1],"loss_changes":[1.2848694E2,1.0921967E1,1.3076008E1,6.452637E-1,1.0305696E0,7.262291E0,0E0,0E0,0E0,0E0,1.7819045E0,1.4077319E1,2.1797028E0,0E0,0E0,0E0,0E0,0E0,0E0],"parents":[2147483647,0,0,1,1,2,2,3,3,4,4,5,5,10,10,11,11,12,12],"right_children":[2,4,6,8,10,12,-1,-1,-1,-1,14,16,18,-1,-1,-1,-1,-1,-1],"split_conditions":[9E0,5E0,1E0,5.16129E-1,1E0,3.0303031E-2,-1.1770125E-2,-4.09909E-3,-1.5099724E-2,-3.5053391E-3,8E0,1E1,7.8571427E-1,1.0569263E-2,-2.661576E-3,1.2379166E-2,-1.1407671E-2,1.2555737E-2,4.143751E-3],"split_indices":[0,1,9,6,4,7,0,0,0,0,0,11,6,0,0,0,0,0,0],"split_type":[0,0,0,0,0,0,0,0,0,0,0,0,0,0,0,0,0,0,0],"sum_hessian":[1.010439E2,4.0702286E1,6.0341618E1,3.6900665E1,3.8016205E0,5.838013E1,1.9614862E0,1.4478133E0,3.545285E1,1.2061846E0,2.5954359E0,8.011973E0,5.0368156E1,1.385839E0,1.2095969E0,4.348276E0,3.6636972E0,4.5724514E1,4.643643E0],"tree_param":{"num_deleted":"0","num_feature":"13","num_nodes":"19","size_leaf_vector":"1"}},{"base_weights":[-3.1077849E-2,-1.2372271E0,8.9832926E-1,9.349247E-3,-1.3714836E0,9.8251164E-1,-1.1091607E-2,-1.4628036E0,-1.24082066E-1,8.692727E-2,1.1050469E0,-2.243288E-3,-1.50315175E-2,2.415982E-3,-4.3360703E-3,1.1742963E-2,-1.3695555E-2,5.8372407E-3,1.261448E-2],"categories":[],"categories_nodes":[],"categories_segments":[],"categories_sizes":[],"default_left":[0,0,0,0,0,0,0,0,0,0,0,0,0,0,0,0,0,0,0],"id":37,"left_children":[1,3,5,-1,7,9,-1,11,13,15,17,-1,-1,-1,-1,-1,-1,-1,-1],"loss_changes":[1.1046153E2,1.378524E1,1.0498249E1,0E0,4.464218E0,5.82584E0,0E0,1.5570908E0,5.433236E-1,1.3613016E1,3.1270294E0,0E0,0E0,0E0,0E0,0E0,0E0,0E0,0E0],"parents":[2147483647,0,0,1,1,2,2,4,4,5,5,7,7,8,8,9,9,10,10],"right_children":[2,4,6,-1,8,10,-1,12,14,16,18,-1,-1,-1,-1,-1,-1,-1,-1],"split_conditions":[9E0,5.16129E-1,1E0,9.349247E-3,5E0,3.0303031E-2,-1.1091607E-2,1E0,2E0,1E1,1.5E1,-2.243288E-3,-1.50315175E-2,2.415982E-3,-4.3360703E-3,1.1742963E-2,-1.3695555E-2,5.8372407E-3,1.261448E-2],"split_indices":[0,6,9,0,1,7,0,1,4,11,0,0,0,0,0,0,0,0,0],"split_type":[0,0,0,0,0,0,0,0,0,0,0,0,0,0,0,0,0,0,0],"sum_hessian":[9.65466E1,4.1873528E1,5.4673073E1,2.090316E0,3.978321E1,5.2962704E1,1.7103692E0,3.6908524E1,2.874687E0,6.580028E0,4.6382675E1,1.3714718E0,3.5537052E1,1.4184045E0,1.4562825E0,3.878325E0,2.7017033E0,1.1795997E1,3.4586678E1],"tree_param":{"num_deleted":"0","num_feature":"13","num_nodes":"19","size_leaf_vector":"1"}},{"base_weights":[4.6859384E-2,-1.2548963E0,9.1478235E-1,-1.4152682E0,2.2340445E-2,9.9086183E-1,-1.1011266E-2,-1.4831523E-2,-2.3471573E-3,5.8963387E-3,-4.317292E-1,1.4023472E-1,1.1564476E0,-1.1395067E-2,5.731679E-3,-1.2985327E-2,8.946471E-3,5.143404E-3,1.2742493E-2],"categories":[],"categories_nodes":[],"categories_segments":[],"categories_sizes":[],"default_left":[0,0,0,0,0,0,0,0,0,0,0,0,0,0,0,0,0,0,0],"id":38,"left_children":[1,3,5,7,9,11,-1,-1,-1,-1,13,15,17,-1,-1,-1,-1,-1,-1],"loss_changes":[1.15642136E2,8.421425E0,1.0504696E1,2.569458E0,1.6851325E0,8.242882E0,0E0,0E0,0E0,0E0,3.2576714E0,1.2950911E1,3.1124115E0,0E0,0E0,0E0,0E0,0E0,0E0],"parents":[2147483647,0,0,1,1,2,2,3,3,4,4,5,5,10,10,11,11,12,12],"right_children":[2,4,6,8,10,12,-1,-1,-1,-1,14,16,18,-1,-1,-1,-1,-1,-1],"split_conditions":[1E0,9E0,1E0,5E0,1.3E1,3.0303031E-2,-1.1011266E-2,-1.4831523E-2,-2.3471573E-3,5.8963387E-3,1.7E1,4E0,1.3E1,-1.1395067E-2,5.731679E-3,-1.2985327E-2,8.946471E-3,5.143404E-3,1.2742493E-2],"split_indices":[2,0,9,1,0,7,0,0,0,0,0,1,0,0,0,0,0,0,0],"split_type":[0,0,0,0,0,0,0,0,0,0,0,0,0,0,0,0,0,0,0],"sum_hessian":[1.00338104E2,3.995927E1,6.0378834E1,3.5405613E1,4.553656E0,5.867302E1,1.7058133E0,3.3238037E1,2.167577E0,1.8917003E0,2.6619558E0,9.8613615E0,4.881166E1,1.4832836E0,1.1786723E0,3.1440253E0,6.7173357E0,8.398684E0,4.0412975E1],"tree_param":{"num_deleted":"0","num_feature":"13","num_nodes":"19","size_leaf_vector":"1"}},{"base_weights":[2.041964E-2,-1.1715842E0,9.2058885E-1,-1.4480058E0,5.5034155E-1,1.0062461E0,-1.0953341E-2,-1.4781879E-2,-4.3926444E-3,1.1255691E-2,-2.8929294E-3,3.1721482E-1,1.1512305E0,-1.2193601E-2,9.241871E-3,1.2184297E-2,-2.872971E-4],"categories":[],"categories_nodes":[],"categories_segments":[],"categories_sizes":[],"default_left":[0,0,0,0,0,0,0,0,0,0,0,0,0,0,0,0,0],"id":39,"left_children":[1,3,5,7,9,11,-1,-1,-1,-1,-1,13,15,-1,-1,-1,-1],"loss_changes":[1.027958E2,2.0419914E1,1.0525211E1,4.4062805E-1,3.4298816E0,4.9161377E0,0E0,0E0,0E0,0E0,0E0,1.0985727E1,3.4680672E0,0E0,0E0,0E0,0E0],"parents":[2147483647,0,0,1,1,2,2,3,3,4,4,5,5,11,11,12,12],"right_children":[2,4,6,8,10,12,-1,-1,-1,-1,-1,14,16,-1,-1,-1,-1],"split_conditions":[1E0,5E0,1E0,9E0,3E0,3.0303031E-2,-1.0953341E-2,-1.4781879E-2,-4.3926444E-3,1.1255691E-2,-2.8929294E-3,4E0,7.7272725E-1,-1.2193601E-2,9.241871E-3,1.2184297E-2,-2.872971E-4],"split_indices":[2,1,9,3,4,7,0,0,0,0,0,1,6,0,0,0,0],"split_type":[0,0,0,0,0,0,0,0,0,0,0,0,0,0,0,0,0],"sum_hessian":[9.37966E1,4.0226784E1,5.356982E1,3.4799484E1,5.4272995E0,5.186683E1,1.7029887E0,3.333666E1,1.4628285E0,3.0186782E0,2.4086213E0,9.570656E0,4.2296173E1,2.4243622E0,7.146293E0,3.9986332E1,2.3098423E0],"tree_param":{"num_deleted":"0","num_feature":"13","num_nodes":"17","size_leaf_vector":"1"}},{"base_weights":[3.0206636E-2,-1.3035364E0,9.548591E-1,-1.4308952E0,-7.032169E-2,1.0889114E0,-4.952092E-2,-1.4690881E-2,-2.7357938E-3,-7.132539E-3,7.3708445E-3,2.1481012E-1,1.165795E0,-1.3543382E-2,5.417352E-1,7.855637E-3,-9.593178E-3,7.2787777E-3,1.364233E-2,-2.4706859E-3,1.0285577E-2],"categories":[],"categories_nodes":[],"categories_segments":[],"categories_sizes":[],"default_left":[0,0,0,0,0,0,0,0,0,0,0,0,0,0,0,0,0,0,0,0,0],"id":40,"left_children":[1,3,5,7,9,11,13,-1,-1,-1,-1,15,17,-1,19,-1,-1,-1,-1,-1,-1],"loss_changes":[1.2123564E2,6.222458E0,7.868103E0,1.208725E0,3.027921E0,3.1935883E0,6.743953E0,0E0,0E0,0E0,0E0,4.3515897E0,3.0806923E0,0E0,2.5871587E0,0E0,0E0,0E0,0E0,0E0,0E0],"parents":[2147483647,0,0,1,1,2,2,3,3,4,4,5,5,6,6,11,11,12,12,14,14],"right_children":[2,4,6,8,10,12,14,-1,-1,-1,-1,16,18,-1,20,-1,-1,-1,-1,-1,-1],"split_conditions":[1E0,5E0,7.7272725E-1,8E0,6.363636E-1,5.172414E-2,8.198198E-1,-1.4690881E-2,-2.7357938E-3,-7.132539E-3,7.3708445E-3,3.809524E-1,9E0,-1.3543382E-2,5E0,7.855637E-3,-9.593178E-3,7.2787777E-3,1.364233E-2,-2.4706859E-3,1.0285577E-2],"split_indices":[2,1,6,3,8,8,6,0,0,0,0,5,11,0,1,0,0,0,0,0,0],"split_type":[0,0,0,0,0,0,0,0,0,0,0,0,0,0,0,0,0,0,0,0,0],"sum_hessian":[9.629662E1,3.9258854E1,5.7037766E1,3.543867E1,3.8201826E0,5.024722E1,6.790548E0,3.4045727E1,1.3929445E0,2.1916203E0,1.6285622E0,4.369023E0,4.5878197E1,1.7150551E0,5.0754924E0,3.1625965E0,1.2064265E0,1.5762102E1,3.0116095E1,2.124931E0,2.9505615E0],"tree_param":{"num_deleted":"0","num_feature":"13","num_nodes":"21","size_leaf_vector":"1"}},{"base_weights":[1.8999942E-2,-1.2039422E0,8.948877E-1,-1.394311E0,2.6327103E-1,6.0664225E-1,1.4003251E-2,-1.466217E-2,1.0152317E-3,6.8752347E-3,-4.748382E-3,7.103227E-1,-1.084415E-2,2.9114403E-3,9.635448E-3],"categories":[],"categories_nodes":[],"categories_segments":[],"categories_sizes":[],"default_left":[0,0,0,0,0,0,0,0,0,0,0,0,0,0,0],"id":41,"left_children":[1,3,5,7,9,11,-1,-1,-1,-1,-1,13,-1,-1,-1],"loss_changes":[1.0953829E2,1.2288807E1,7.8296967E0,4.2295914E0,2.1248972E0,7.731209E0,0E0,0E0,0E0,0E0,0E0,3.7543297E0,0E0,0E0,0E0],"parents":[2147483647,0,0,1,1,2,2,3,3,4,4,5,5,11,11],"right_children":[2,4,6,8,10,12,-1,-1,-1,-1,-1,14,-1,-1,-1],"split_conditions":[1E0,5E0,5E0,9E0,1.1E1,6.2E1,1.4003251E-2,-1.466217E-2,1.0152317E-3,6.8752347E-3,-4.748382E-3,5E0,-1.084415E-2,2.9114403E-3,9.635448E-3],"split_indices":[2,1,4,3,3,0,0,0,0,0,0,1,0,0,0],"split_type":[0,0,0,0,0,0,0,0,0,0,0,0,0,0,0],"sum_hessian":[1.0025555E2,4.1682533E1,5.857301E1,3.693939E1,4.7431436E0,3.8701942E1,1.9871067E1,3.526402E1,1.6753721E0,3.0554552E0,1.6876885E0,3.7012615E1,1.6893284E0,1.4748317E1,2.22643E1],"tree_param":{"num_deleted":"0","num_feature":"13","num_nodes":"15","size_leaf_vector":"1"}},{"base_weights":[4.7886923E-2,-1.4346095E0,7.4132794E-1,-6.1624963E-3,-1.4706706E-2,-4.6666712E-1,1.0110216E0,-1.1671615E-2,3.7129667E-1,1.0706372E0,-9.641992E-3,7.82888E-3,-2.8250595E-3,7.715057E-3,1.4170167E-2],"categories":[],"categories_nodes":[],"categories_segments":[],"categories_sizes":[],"default_left":[0,0,0,0,0,0,0,0,0,0,0,0,0,0,0],"id":42,"left_children":[1,3,5,-1,-1,7,9,-1,11,13,-1,-1,-1,-1,-1],"loss_changes":[1.062285E2,6.5849304E-2,2.3393162E1,0E0,0E0,8.372381E0,7.8421974E0,0E0,2.0825014E0,4.7724E0,0E0,0E0,0E0,0E0,0E0],"parents":[2147483647,0,0,1,1,2,2,5,5,6,6,8,8,9,9],"right_children":[2,4,6,-1,-1,8,10,-1,12,14,-1,-1,-1,-1,-1],"split_conditions":[3E0,5.16129E-1,1E0,-6.1624963E-3,-1.4706706E-2,5E0,1E0,-1.1671615E-2,3E0,4E0,-9.641992E-3,7.82888E-3,-2.8250595E-3,7.715057E-3,1.4170167E-2],"split_indices":[1,6,2,0,0,1,9,0,4,4,0,0,0,0,0],"split_type":[0,0,0,0,0,0,0,0,0,0,0,0,0,0,0],"sum_hessian":[1.012982E2,3.194171E1,6.93565E1,2.1115637E0,2.9830147E1,1.2524989E1,5.6831505E1,6.6081033E0,5.9168863E0,5.5611034E1,1.2204707E0,3.5098662E0,2.40702E0,3.157252E1,2.4038517E1],"tree_param":{"num_deleted":"0","num_feature":"13","num_nodes":"15","size_leaf_vector":"1"}},{"base_weights":[4.710464E-2,-1.2423943E0,8.990586E-1,-1.413757E0,1.10496715E-1,9.6623844E-1,-1.0293333E-2,-1.4482143E-2,-2.5695567E-3,7.016579E-3,-5.986887E-3,2.2741519E-1,1.11823E0,-1.2576513E-2,9.102357E-3,6.322663E-3,1.2639855E-2],"categories":[],"categories_nodes":[],"categories_segments":[],"categories_sizes":[],"default_left":[0,0,0,0,0,0,0,0,0,0,0,0,0,0,0,0,0],"id":43,"left_children":[1,3,5,7,9,11,-1,-1,-1,-1,-1,13,15,-1,-1,-1,-1],"loss_changes":[1.0700194E2,9.143181E0,8.588467E0,1.0022125E0,2.6360092E0,6.164501E0,0E0,0E0,0E0,0E0,0E0,1.2307266E1,2.5407104E0,0E0,0E0,0E0,0E0],"parents":[2147483647,0,0,1,1,2,2,3,3,4,4,5,5,11,11,12,12],"right_children":[2,4,6,8,10,12,-1,-1,-1,-1,-1,14,16,-1,-1,-1,-1],"split_conditions":[1E0,5E0,1E0,9E0,3E0,3.0303031E-2,-1.0293333E-2,-1.4482143E-2,-2.5695567E-3,7.016579E-3,-5.986887E-3,4E0,9E0,-1.2576513E-2,9.102357E-3,6.322663E-3,1.2639855E-2],"split_indices":[2,1,9,3,4,7,0,0,0,0,0,1,11,0,0,0,0],"split_type":[0,0,0,0,0,0,0,0,0,0,0,0,0,0,0,0,0],"sum_hessian":[9.538227E1,3.776448E1,5.7617786E1,3.3478916E1,4.2855625E0,5.616026E1,1.4575287E0,3.2265907E1,1.213012E0,2.3430567E0,1.9425058E0,1.0008021E1,4.6152237E1,2.8870747E0,7.1209474E0,1.18802185E1,3.427202E1],"tree_param":{"num_deleted":"0","num_feature":"13","num_nodes":"17","size_leaf_vector":"1"}},{"base_weights":[-3.5344046E-2,-1.1928507E0,8.4004384E-1,-1.4108098E0,-1.5747148E-1,9.2599005E-1,-1.1133666E-2,-3.7736234E-3,-1.450855E-2,-7.230937E-1,6.004348E-1,5.805921E-1,1.2911389E0,-1.1135126E-2,-2.349668E-4,2.0977403E-3,7.2998325E-3,2.7269925E-4,9.17153E-3,-1.301006E-3,1.3969669E-2],"categories":[],"categories_nodes":[],"categories_segments":[],"categories_sizes":[],"default_left":[0,0,0,0,0,0,0,0,0,0,0,0,0,0,0,0,0,0,0,0,0],"id":44,"left_children":[1,3,5,7,9,11,-1,-1,-1,13,15,17,19,-1,-1,-1,-1,-1,-1,-1,-1],"loss_changes":[9.5276276E1,8.912338E0,1.0023487E1,8.311386E-1,3.934306E0,5.7899284E0,0E0,0E0,0E0,1.3747859E0,5.1109195E-2,5.2756214E0,3.849846E0,0E0,0E0,0E0,0E0,0E0,0E0,0E0,0E0],"parents":[2147483647,0,0,1,1,2,2,3,3,4,4,5,5,9,9,10,10,11,11,12,12],"right_children":[2,4,6,8,10,12,-1,-1,-1,14,16,18,20,-1,-1,-1,-1,-1,-1,-1,-1],"split_conditions":[9E0,4E0,1E0,1E0,1.4285715E-1,4E0,-1.1133666E-2,-3.7736234E-3,-1.450855E-2,6.923077E-1,1E0,5E0,4.054054E-2,-1.1135126E-2,-2.349668E-4,2.0977403E-3,7.2998325E-3,2.7269925E-4,9.17153E-3,-1.301006E-3,1.3969669E-2],"split_indices":[0,1,9,1,5,4,0,0,0,8,4,1,8,0,0,0,0,0,0,0,0],"split_type":[0,0,0,0,0,0,0,0,0,0,0,0,0,0,0,0,0,0,0,0,0],"sum_hessian":[9.203983E1,3.9477253E1,5.256258E1,3.2312508E1,7.164749E0,5.0851192E1,1.711389E0,1.5942103E0,3.0718296E1,4.1291294E0,3.0356193E0,2.7463352E1,2.338784E1,2.2704358E0,1.8586937E0,1.4082456E0,1.6273738E0,1.0795712E1,1.666764E1,1.604916E0,2.1782925E1],"tree_param":{"num_deleted":"0","num_feature":"13","num_nodes":"21","size_leaf_vector":"1"}},{"base_weights":[-4.331072E-4,-1.1712219E0,8.500825E-1,-1.365031E0,1.7418887E-1,2.0272776E-1,1.1690041E0,-1.4332982E-2,-1.0973102E-3,7.3874127E-3,-3.902667E-1,3.8399193E-1,-1.0780488E-2,-3.656149E-1,1.325731E0,-1.0859296E-2,5.767687E-3,5.0924295E-3,-3.7154495E-3,-1.143559E-2,5.903926E-3,1.3491667E-2,3.1732512E-3],"categories":[],"categories_nodes":[],"categories_segments":[],"categories_sizes":[],"default_left":[0,0,0,0,0,0,0,0,0,0,0,0,0,0,0,0,0,0,0,0,0,0,0],"id":45,"left_children":[1,3,5,7,9,11,13,-1,-1,-1,15,17,-1,19,21,-1,-1,-1,-1,-1,-1,-1,-1],"loss_changes":[9.580144E1,1.0793526E1,1.1268009E1,2.884735E0,2.195214E0,4.9648314E0,9.413601E0,0E0,0E0,0E0,3.0795188E0,1.8840082E0,0E0,3.8165374E0,3.730278E-1,0E0,0E0,0E0,0E0,0E0,0E0,0E0,0E0],"parents":[2147483647,0,0,1,1,2,2,3,3,4,4,5,5,6,6,10,10,11,11,13,13,14,14],"right_children":[2,4,6,8,10,12,14,-1,-1,-1,16,18,-1,20,22,-1,-1,-1,-1,-1,-1,-1,-1],"split_conditions":[1E0,9E0,1.5E1,5E0,1.3E1,1E0,5.172414E-2,-1.4332982E-2,-1.0973102E-3,7.3874127E-3,1.7E1,1E1,-1.0780488E-2,6.086956E-1,1.2E1,-1.0859296E-2,5.767687E-3,5.0924295E-3,-3.7154495E-3,-1.143559E-2,5.903926E-3,1.3491667E-2,3.1732512E-3],"split_indices":[2,0,0,1,0,9,8,0,0,0,0,11,0,6,1,0,0,0,0,0,0,0,0],"split_type":[0,0,0,0,0,0,0,0,0,0,0,0,0,0,0,0,0,0,0,0,0,0,0],"sum_hessian":[9.420813E1,3.9481823E1,5.472631E1,3.449777E1,4.984056E0,1.860239E1,3.6123917E1,3.258395E1,1.9138156E0,2.3374436E0,2.6466126E0,1.6909441E1,1.6929501E0,3.2238839E0,3.2900036E1,1.4677792E0,1.1788335E0,1.4784491E1,2.1249504E0,1.6693116E0,1.5545722E0,3.1822546E1,1.0774883E0],"tree_param":{"num_deleted":"0","num_feature":"13","num_nodes":"23","size_leaf_vector":"1"}},{"base_weights":[-6.5127775E-2,-1.2926815E0,8.488248E-1,-1.3998297E0,-3.2982945E-1,1.4615647E-1,1.0766101E0,-1.4306445E-2,-2.5626372E-3,3.443012E-1,-1.1593658E-2,-9.769311E-1,6.0898876E-1,5.181159E-2,1.2426496E0,7.7529554E-3,-3.248216E-3,-1.2964265E-3,-1.2134062E-2,8.106396E-3,-2.7155231E-3,5.681688E-3,-1.3330117E-2,1.6998318E-3,1.3233975E-2],"categories":[],"categories_nodes":[],"categories_segments":[],"categories_sizes":[],"default_left":[0,0,0,0,0,0,0,0,0,0,0,0,0,0,0,0,0,0,0,0,0,0,0,0,0],"id":46,"left_children":[1,3,5,7,9,11,13,-1,-1,15,-1,17,19,21,23,-1,-1,-1,-1,-1,-1,-1,-1,-1,-1],"loss_changes":[1.1167497E2,3.918808E0,8.9820175E0,9.689255E-1,3.5084925E0,8.46261E0,7.2463493E0,0E0,0E0,1.3587883E0,0E0,8.046799E-1,2.232738E0,5.7872024E0,2.9738083E0,0E0,0E0,0E0,0E0,0E0,0E0,0E0,0E0,0E0,0E0],"parents":[2147483647,0,0,1,1,2,2,3,3,4,4,5,5,6,6,9,9,11,11,12,12,13,13,14,14],"right_children":[2,4,6,8,10,12,14,-1,-1,16,-1,18,20,22,24,-1,-1,-1,-1,-1,-1,-1,-1,-1,-1],"split_conditions":[1E0,5E0,2E0,9E0,3E0,4E0,8E0,-1.4306445E-2,-2.5626372E-3,7.2727275E-1,-1.1593658E-2,2E0,1.2E1,7E0,4.5045044E-2,7.7529554E-3,-3.248216E-3,-1.2964265E-3,-1.2134062E-2,8.106396E-3,-2.7155231E-3,5.681688E-3,-1.3330117E-2,1.6998318E-3,1.3233975E-2],"split_indices":[2,1,4,0,4,1,3,0,0,8,0,2,11,11,8,0,0,0,0,0,0,0,0,0,0],"split_type":[0,0,0,0,0,0,0,0,0,0,0,0,0,0,0,0,0,0,0,0,0,0,0,0,0],"sum_hessian":[9.756063E1,4.14601E1,5.6100533E1,3.6899956E1,4.560146E0,1.41359215E1,4.196461E1,3.568728E1,1.2126764E0,2.8384223E0,1.7217238E0,3.8012404E0,1.03346815E1,6.034098E0,3.593051E1,1.6298993E0,1.2085229E0,1.167244E0,2.6339965E0,8.473556E0,1.8611253E0,4.824799E0,1.2092988E0,2.732797E0,3.3197716E1],"tree_param":{"num_deleted":"0","num_feature":"13","num_nodes":"25","size_leaf_vector":"1"}},{"base_weights":[5.9784144E-2,-1.2123371E0,9.484467E-1,-1.3939022E0,-7.537387E-2,1.7478257E-2,1.1441187E0,-1.4231151E-2,-4.2526303E-3,7.298646E-3,-4.7597176E-1,-7.143573E-1,1.1313949E-2,3.1958267E-1,1.2594246E0,-2.9473865E-4,-7.364451E-3,-1.2521235E-2,-3.4913182E-4,6.809954E-3,-3.839966E-3,-1.0425765E-3,1.3161775E-2],"categories":[],"categories_nodes":[],"categories_segments":[],"categories_sizes":[],"default_left":[0,0,0,0,0,0,0,0,0,0,0,0,0,0,0,0,0,0,0,0,0,0,0],"id":47,"left_children":[1,3,5,7,9,11,13,-1,-1,-1,15,17,-1,19,21,-1,-1,-1,-1,-1,-1,-1,-1],"loss_changes":[1.12955154E2,8.382103E0,1.0688854E1,3.9637756E-1,2.5146618E0,9.959238E0,4.2144127E0,0E0,0E0,0E0,5.7048106E-1,2.6555653E0,0E0,2.1172154E0,3.4081116E0,0E0,0E0,0E0,0E0,0E0,0E0,0E0,0E0],"parents":[2147483647,0,0,1,1,2,2,3,3,4,4,5,5,6,6,10,10,11,11,13,13,14,14],"right_children":[2,4,6,8,10,12,14,-1,-1,-1,16,18,-1,20,22,-1,-1,-1,-1,-1,-1,-1,-1],"split_conditions":[1E0,5E0,3.0303031E-2,9E0,8E0,6E0,1.2E1,-1.4231151E-2,-4.2526303E-3,7.298646E-3,5.714286E-1,4E0,1.1313949E-2,1.1E1,3E0,-2.9473865E-4,-7.364451E-3,-1.2521235E-2,-3.4913182E-4,6.809954E-3,-3.839966E-3,-1.0425765E-3,1.3161775E-2],"split_indices":[2,1,7,3,0,1,0,0,0,0,8,1,0,0,1,0,0,0,0,0,0,0,0],"split_type":[0,0,0,0,0,0,0,0,0,0,0,0,0,0,0,0,0,0,0,0,0,0,0],"sum_hessian":[9.7900185E1,4.011348E1,5.7786705E1,3.439487E1,5.718607E0,1.0225437E1,4.7561268E1,3.2932476E1,1.4623942E0,1.6267508E0,4.0918565E0,6.387555E0,3.837882E0,6.29785E0,4.126342E1,1.9177114E0,2.174145E0,3.0950336E0,3.2925212E0,4.1818347E0,2.1160152E0,1.615219E0,3.96482E1],"tree_param":{"num_deleted":"0","num_feature":"13","num_nodes":"23","size_leaf_vector":"1"}},{"base_weights":[3.4166522E-2,-1.1309578E0,8.768398E-1,-1.3863242E0,2.251222E-1,9.5750004E-1,-1.0979037E-2,-1.4159186E-2,-4.227457E-3,6.112998E-1,-3.413277E-1,8.201299E-2,1.1432438E0,1.0217192E-2,-3.2376025E-3,3.638E-3,-9.569126E-3,-1.2041573E-2,6.459628E-3,6.6575506E-3,1.2670408E-2],"categories":[],"categories_nodes":[],"categories_segments":[],"categories_sizes":[],"default_left":[0,0,0,0,0,0,0,0,0,0,0,0,0,0,0,0,0,0,0,0,0],"id":48,"left_children":[1,3,5,7,9,11,-1,-1,-1,13,15,17,19,-1,-1,-1,-1,-1,-1,-1,-1],"loss_changes":[9.629539E1,1.4571358E1,1.01131935E1,3.9353943E-1,1.8242403E0,8.881622E0,0E0,0E0,0E0,2.1536355E0,1.9262395E0,8.566234E0,1.843441E0,0E0,0E0,0E0,0E0,0E0,0E0,0E0,0E0],"parents":[2147483647,0,0,1,1,2,2,3,3,4,4,5,5,9,9,10,10,11,11,12,12],"right_children":[2,4,6,8,10,12,-1,-1,-1,14,16,18,20,-1,-1,-1,-1,-1,-1,-1,-1],"split_conditions":[1E0,5E0,1E0,9E0,3E0,3.0303031E-2,-1.0979037E-2,-1.4159186E-2,-4.227457E-3,7.2727275E-1,5.714286E-1,4E0,8E0,1.0217192E-2,-3.2376025E-3,3.638E-3,-9.569126E-3,-1.2041573E-2,6.459628E-3,6.6575506E-3,1.2670408E-2],"split_indices":[2,1,9,3,4,7,0,0,0,8,8,1,3,0,0,0,0,0,0,0,0],"split_type":[0,0,0,0,0,0,0,0,0,0,0,0,0,0,0,0,0,0,0,0,0],"sum_hessian":[9.60685E1,4.0176395E1,5.58921E1,3.3790863E1,6.38553E0,5.4193638E1,1.6984613E0,3.2328518E1,1.4623464E0,3.7498736E0,2.6356564E0,9.737641E0,4.4455997E1,2.5416205E0,1.2082531E0,1.4191241E0,1.2165322E0,2.622172E0,7.115469E0,1.0466032E1,3.3989967E1],"tree_param":{"num_deleted":"0","num_feature":"13","num_nodes":"21","size_leaf_vector":"1"}},{"base_weights":[2.3856484E-3,-1.1313454E0,8.038856E-1,-1.3388165E0,9.7267486E-2,2.7302605E-1,1.1501365E0,-1.4099956E-2,-6.376583E-4,4.975913E-1,-9.786495E-3,-7.966728E-1,6.394121E-1,2.1097325E-3,1.2033776E0,7.894787E-3,-3.2195454E-3,-1.273052E-2,5.740168E-4,-5.6119455E-4,9.585702E-3,1.2503452E-2,4.9602863E-4],"categories":[],"categories_nodes":[],"categories_segments":[],"categories_sizes":[],"default_left":[0,0,0,0,0,0,0,0,0,0,0,0,0,0,0,0,0,0,0,0,0,0,0],"id":49,"left_children":[1,3,5,7,9,11,13,-1,-1,15,-1,17,19,-1,21,-1,-1,-1,-1,-1,-1,-1,-1],"loss_changes":[9.089554E1,1.0690662E1,1.0457176E1,3.1330261E0,3.4664752E0,1.0089632E1,1.5039558E0,0E0,0E0,1.6188078E0,0E0,2.791594E0,4.218784E0,0E0,1.7293243E0,0E0,0E0,0E0,0E0,0E0,0E0,0E0,0E0],"parents":[2147483647,0,0,1,1,2,2,3,3,4,4,5,5,6,6,9,9,11,11,12,12,14,14],"right_children":[2,4,6,8,10,12,14,-1,-1,16,-1,18,20,-1,22,-1,-1,-1,-1,-1,-1,-1,-1],"split_conditions":[1E0,5E0,5E0,9E0,1.3E1,3.0303031E-2,9E0,-1.4099956E-2,-6.376583E-4,7.2727275E-1,-9.786495E-3,4E0,1.5E1,2.1097325E-3,6.4285713E-1,7.894787E-3,-3.2195454E-3,-1.273052E-2,5.740168E-4,-5.6119455E-4,9.585702E-3,1.2503452E-2,4.9602863E-4],"split_indices":[2,1,1,3,0,7,0,0,0,8,0,1,0,0,5,0,0,0,0,0,0,0,0],"split_type":[0,0,0,0,0,0,0,0,0,0,0,0,0,0,0,0,0,0,0,0,0,0,0],"sum_hessian":[9.8028854E1,4.0429424E1,5.7599426E1,3.451184E1,5.917582E0,2.3444174E1,3.4155254E1,3.2586864E1,1.9249777E0,4.704621E0,1.2129616E0,5.68165E0,1.7762524E1,2.0986187E0,3.2056637E1,3.4961338E0,1.2084868E0,3.3323781E0,2.349272E0,5.8462124E0,1.1916311E1,3.0722298E1,1.3343363E0],"tree_param":{"num_deleted":"0","num_feature":"13","num_nodes":"23","size_leaf_vector":"1"}},{"base_weights":[-2.9874505E-2,-1.1300389E0,7.834955E-1,-1.3048497E0,3.1183842E-1,8.510142E-1,-1.0169799E-2,-1.4011593E-2,-3.731344E-1,-4.8794914E-3,7.4855117E-3,6.1086214E-1,1.3192291E0,-1.1169366E-2,5.0893817E-3,7.0299814E-3,-1.0012432E-2,3.8018175E-3,1.3603967E-2],"categories":[],"categories_nodes":[],"categories_segments":[],"categories_sizes":[],"default_left":[0,0,0,0,0,0,0,0,0,0,0,0,0,0,0,0,0,0,0],"id":50,"left_children":[1,3,5,7,9,11,-1,-1,13,-1,-1,15,17,-1,-1,-1,-1,-1,-1],"loss_changes":[8.582075E1,1.0679417E1,7.5712547E0,2.7561073E0,2.1863527E0,5.2337074E0,0E0,0E0,3.7086647E0,0E0,0E0,6.2538195E0,1.534214E-1,0E0,0E0,0E0,0E0,0E0,0E0],"parents":[2147483647,0,0,1,1,2,2,3,3,4,4,5,5,8,8,11,11,12,12],"right_children":[2,4,6,8,10,12,-1,-1,14,-1,-1,16,18,-1,-1,-1,-1,-1,-1],"split_conditions":[9E0,5E0,1E0,1.5E-1,6.363636E-1,5E0,-1.0169799E-2,-1.4011593E-2,1.724138E-1,-4.8794914E-3,7.4855117E-3,3E1,3E0,-1.1169366E-2,5.0893817E-3,7.0299814E-3,-1.0012432E-2,3.8018175E-3,1.3603967E-2],"split_indices":[0,1,9,5,8,4,0,0,7,0,0,2,1,0,0,0,0,0,0],"split_type":[0,0,0,0,0,0,0,0,0,0,0,0,0,0,0,0,0,0,0],"sum_hessian":[9.391674E1,3.9754913E1,5.416183E1,3.554101E1,4.2139015E0,5.2712425E1,1.4494025E0,3.1754742E1,3.7862718E0,1.4468482E0,2.7670536E0,3.636508E1,1.6347347E1,1.9096813E0,1.8765905E0,3.493252E1,1.4325594E0,1.1164186E0,1.5230928E1],"tree_param":{"num_deleted":"0","num_feature":"13","num_nodes":"19","size_leaf_vector":"1"}},{"base_weights":[-2.3492225E-2,-1.1213086E0,7.751024E-1,-1.3278905E0,1.0525363E-1,8.49891E-1,-1.0603536E-2,-1.3979237E-2,-6.7578454E-4,7.517212E-1,-7.7651346E-1,5.9097844E-1,1.3193597E0,1.0182319E-2,3.0810125E-3,-2.2644526E-3,-9.737749E-3,6.842891E-4,9.108235E-3,3.0579262E-3,1.4070444E-2],"categories":[],"categories_nodes":[],"categories_segments":[],"categories_sizes":[],"default_left":[0,0,0,0,0,0,0,0,0,0,0,0,0,0,0,0,0,0,0,0,0],"id":51,"left_children":[1,3,5,7,9,11,-1,-1,-1,13,15,17,19,-1,-1,-1,-1,-1,-1,-1,-1],"loss_changes":[8.640031E1,1.0653168E1,8.734913E0,3.0463333E0,4.5211854E0,5.9528084E0,0E0,0E0,0E0,2.1755576E-1,1.4991951E-1,6.207098E0,1.2474327E0,0E0,0E0,0E0,0E0,0E0,0E0,0E0,0E0],"parents":[2147483647,0,0,1,1,2,2,3,3,4,4,5,5,9,9,10,10,11,11,12,12],"right_children":[2,4,6,8,10,12,-1,-1,-1,14,16,18,20,-1,-1,-1,-1,-1,-1,-1,-1],"split_conditions":[1E0,5E0,1E0,9E0,3E0,5E0,-1.0603536E-2,-1.3979237E-2,-6.7578454E-4,8E0,1E1,5E0,4.054054E-2,1.0182319E-2,3.0810125E-3,-2.2644526E-3,-9.737749E-3,6.842891E-4,9.108235E-3,3.0579262E-3,1.4070444E-2],"split_indices":[2,1,9,3,4,4,0,0,0,0,0,1,8,0,0,0,0,0,0,0,0],"split_type":[0,0,0,0,0,0,0,0,0,0,0,0,0,0,0,0,0,0,0,0,0],"sum_hessian":[9.655923E1,4.0491734E1,5.6067497E1,3.4584312E1,5.907422E0,5.4388317E1,1.6791809E0,3.266025E1,1.9240593E0,3.493584E0,2.413838E0,3.651118E1,1.7877136E1,1.3732843E0,2.1202996E0,1.2041057E0,1.2097322E0,1.4323685E1,2.2187496E1,1.7807266E0,1.609641E1],"tree_param":{"num_deleted":"0","num_feature":"13","num_nodes":"21","size_leaf_vector":"1"}},{"base_weights":[2.6925461E-2,-1.1548578E0,8.1252337E-1,-1.322918E0,4.066858E-1,9.0024465E-1,-1.1288151E-2,-1.3895257E-2,-1.1587315E-3,1.0304924E-2,-2.025288E-3,9.71583E-1,-2.8386757E-1,1.0605431E-2,3.7032035E-3,-1.1469575E-2,8.551075E-3],"categories":[],"categories_nodes":[],"categories_segments":[],"categories_sizes":[],"default_left":[0,0,0,0,0,0,0,0,0,0,0,0,0,0,0,0,0],"id":52,"left_children":[1,3,5,7,9,11,-1,-1,-1,-1,-1,13,15,-1,-1,-1,-1],"loss_changes":[8.884719E1,1.0569E1,1.0802296E1,2.6323547E0,1.9108205E0,4.967148E0,0E0,0E0,0E0,0E0,0E0,2.4211388E0,4.843779E0,0E0,0E0,0E0,0E0],"parents":[2147483647,0,0,1,1,2,2,3,3,4,4,5,5,11,11,12,12],"right_children":[2,4,6,8,10,12,-1,-1,-1,-1,-1,14,16,-1,-1,-1,-1],"split_conditions":[9E0,1.5E-1,1E0,5E0,2E0,3E1,-1.1288151E-2,-1.3895257E-2,-1.1587315E-3,1.0304924E-2,-2.025288E-3,7.8571427E-1,5E0,1.0605431E-2,3.7032035E-3,-1.1469575E-2,8.551075E-3],"split_indices":[0,5,9,1,2,2,0,0,0,0,0,6,1,0,0,0,0],"split_type":[0,0,0,0,0,0,0,0,0,0,0,0,0,0,0,0,0],"sum_hessian":[9.368789E1,3.7222958E1,5.6464928E1,3.3744083E1,3.478874E0,5.45369E1,1.9280264E0,3.1836111E1,1.9079738E0,1.3771887E0,2.1016853E0,5.160724E1,2.9296618E0,4.4290375E1,7.3168635E0,1.6626979E0,1.266964E0],"tree_param":{"num_deleted":"0","num_feature":"13","num_nodes":"17","size_leaf_vector":"1"}},{"base_weights":[4.240238E-2,-1.098108E0,8.403571E-1,-1.2842122E0,3.357941E-1,9.187561E-1,-1.0877767E-2,-1.3833819E-2,-2.123078E-2,-1.2073465E-1,9.766578E-3,1.0016029E0,-3.4432197E-1,2.9662796E-3,-3.591518E-3,-1.015058E-2,7.4887364E-3,1.03803845E-2,-2.9282E-3,-1.0401132E-2,5.3072856E-3],"categories":[],"categories_nodes":[],"categories_segments":[],"categories_sizes":[],"default_left":[0,0,0,0,0,0,0,0,0,0,0,0,0,0,0,0,0,0,0,0,0],"id":53,"left_children":[1,3,5,7,9,11,-1,-1,13,15,-1,17,19,-1,-1,-1,-1,-1,-1,-1,-1],"loss_changes":[8.85633E1,1.1125397E1,9.649822E0,4.4393234E0,1.6967726E0,6.1558113E0,0E0,0E0,4.9462196E-1,3.903227E0,0E0,2.7738495E0,3.0862806E0,0E0,0E0,0E0,0E0,0E0,0E0,0E0,0E0],"parents":[2147483647,0,0,1,1,2,2,3,3,4,4,5,5,8,8,9,9,11,11,12,12],"right_children":[2,4,6,8,10,12,-1,-1,14,16,-1,18,20,-1,-1,-1,-1,-1,-1,-1,-1],"split_conditions":[9E0,1.4285715E-1,1E0,5E0,6E0,3E1,-1.0877767E-2,-1.3833819E-2,6E0,1E0,9.766578E-3,9.230769E-1,3E0,2.9662796E-3,-3.591518E-3,-1.015058E-2,7.4887364E-3,1.03803845E-2,-2.9282E-3,-1.0401132E-2,5.3072856E-3],"split_indices":[0,5,9,1,1,2,0,0,3,4,0,6,4,0,0,0,0,0,0,0,0],"split_type":[0,0,0,0,0,0,0,0,0,0,0,0,0,0,0,0,0,0,0,0,0],"sum_hessian":[9.5300224E1,3.9074787E1,5.622544E1,3.467833E1,4.396458E0,5.453165E1,1.6937883E0,3.2065228E1,2.613102E0,3.0414455E0,1.3550124E0,5.1369293E1,3.1623585E0,1.4094902E0,1.2036117E0,1.4169576E0,1.624488E0,5.015558E1,1.213714E0,1.6565391E0,1.5058196E0],"tree_param":{"num_deleted":"0","num_feature":"13","num_nodes":"21","size_leaf_vector":"1"}},{"base_weights":[-2.876229E-2,-1.166293E0,7.806497E-1,-1.2343656E0,5.712246E-3,8.5768735E-1,-1.0657127E-2,-1.342974E0,-3.8746324E-1,-2.840022E-1,9.5831853E-1,-1.3765997E-2,-2.4213737E-3,7.123233E-3,-9.876365E-3,-1.0434905E-2,3.6569245E-3,6.6066673E-3,1.2890969E-2],"categories":[],"categories_nodes":[],"categories_segments":[],"categories_sizes":[],"default_left":[0,0,0,0,0,0,0,0,0,0,0,0,0,0,0,0,0,0,0],"id":54,"left_children":[1,3,5,7,-1,9,-1,11,13,15,17,-1,-1,-1,-1,-1,-1,-1,-1],"loss_changes":[8.77803E1,5.391838E0,8.840157E0,3.0160751E0,0E0,6.481476E0,0E0,9.130821E-1,4.515804E0,2.9224193E0,4.061001E0,0E0,0E0,0E0,0E0,0E0,0E0,0E0,0E0],"parents":[2147483647,0,0,1,1,2,2,3,3,5,5,7,7,8,8,9,9,10,10],"right_children":[2,4,6,8,-1,10,-1,12,14,16,18,-1,-1,-1,-1,-1,-1,-1,-1],"split_conditions":[1E0,1.7E1,1E0,5E0,5.712246E-3,3E0,-1.0657127E-2,9E0,8E0,7.8947365E-2,4E0,-1.3765997E-2,-2.4213737E-3,7.123233E-3,-9.876365E-3,-1.0434905E-2,3.6569245E-3,6.6066673E-3,1.2890969E-2],"split_indices":[2,0,9,1,0,1,0,0,0,7,4,0,0,0,0,0,0,0,0],"split_type":[0,0,0,0,0,0,0,0,0,0,0,0,0,0,0,0,0,0,0],"sum_hessian":[9.334875E1,3.8625027E1,5.472372E1,3.7447487E1,1.1775384E0,5.3045906E1,1.6778162E0,3.267184E1,4.7756457E0,4.14925E0,4.8896656E1,3.146036E1,1.2114825E0,1.6200767E0,3.1555693E0,1.6335351E0,2.515715E0,2.7314735E1,2.158192E1],"tree_param":{"num_deleted":"0","num_feature":"13","num_nodes":"19","size_leaf_vector":"1"}},{"base_weights":[5.4675015E-3,-1.0562956E0,7.574967E-1,-1.2997555E0,1.23349056E-1,8.4432185E-1,-1.0989838E-2,-1.3677688E-2,-4.3024552E-1,4.0603903E-1,-8.251647E-3,4.980205E-1,1.2381123E0,5.3607756E-3,-1.0558245E-2,7.593858E-3,-5.442578E-4,6.789432E-3,-1.292528E-2,8.5778657E-4,1.3383367E-2],"categories":[],"categories_nodes":[],"categories_segments":[],"categories_sizes":[],"default_left":[0,0,0,0,0,0,0,0,0,0,0,0,0,0,0,0,0,0,0,0,0],"id":55,"left_children":[1,3,5,7,9,11,-1,-1,13,15,-1,17,19,-1,-1,-1,-1,-1,-1,-1,-1],"loss_changes":[7.561586E1,1.1437492E1,9.862875E0,1.3415375E0,2.3811607E0,6.6819954E0,0E0,0E0,2.879162E0,1.1068795E0,0E0,1.0644766E1,2.6997604E0,0E0,0E0,0E0,0E0,0E0,0E0,0E0,0E0],"parents":[2147483647,0,0,1,1,2,2,3,3,4,4,5,5,8,8,9,9,11,11,12,12],"right_children":[2,4,6,8,10,12,-1,-1,14,16,-1,18,20,-1,-1,-1,-1,-1,-1,-1,-1],"split_conditions":[9E0,4E0,1E0,1.5E-1,8.695652E-1,4E0,-1.0989838E-2,-1.3677688E-2,2.0833333E-1,2E0,-8.251647E-3,2.6E1,4.054054E-2,5.3607756E-3,-1.0558245E-2,7.593858E-3,-5.442578E-4,6.789432E-3,-1.292528E-2,8.5778657E-4,1.3383367E-2],"split_indices":[0,1,9,5,6,4,0,0,5,4,0,2,8,0,0,0,0,0,0,0,0],"split_type":[0,0,0,0,0,0,0,0,0,0,0,0,0,0,0,0,0,0,0,0,0],"sum_hessian":[9.2698044E1,3.8266438E1,5.443161E1,3.1635548E1,6.630891E0,5.2520496E1,1.9111115E0,2.8809055E1,2.8264923E0,5.549013E0,1.0818775E0,2.915028E1,2.3370216E1,1.1669661E0,1.6595262E0,2.7723913E0,2.7766218E0,2.7038992E1,2.1112878E0,2.0184824E0,2.1351734E1],"tree_param":{"num_deleted":"0","num_feature":"13","num_nodes":"21","size_leaf_vector":"1"}},{"base_weights":[-4.0816005E-2,-1.1806315E0,8.0982715E-1,-1.334904E0,-7.617471E-2,-1.5740947E-1,1.0008044E0,-1.3680493E-2,-2.4913845E-3,6.38387E-1,-1.1177912E-2,-1.1034527E-2,7.712773E-1,4.9972233E-1,1.1607331E0,1.0074067E-2,7.089447E-4,1.4007272E-3,1.1311821E-2,9.342318E-3,-1.3984777E-3,-2.5440315E-5,1.2105623E-2],"categories":[],"categories_nodes":[],"categories_segments":[],"categories_sizes":[],"default_left":[0,0,0,0,0,0,0,0,0,0,0,0,0,0,0,0,0,0,0,0,0,0,0],"id":56,"left_children":[1,3,5,7,9,11,13,-1,-1,15,-1,-1,17,19,21,-1,-1,-1,-1,-1,-1,-1,-1],"loss_changes":[8.645472E1,6.3887215E0,9.594769E0,8.598366E-1,4.9777946E0,9.011461E0,2.849926E0,0E0,0E0,7.734784E-1,0E0,0E0,1.0400472E0,3.4964416E0,1.8399773E0,0E0,0E0,0E0,0E0,0E0,0E0,0E0,0E0],"parents":[2147483647,0,0,1,1,2,2,3,3,4,4,5,5,6,6,9,9,12,12,13,13,14,14],"right_children":[2,4,6,8,10,12,14,-1,-1,16,-1,-1,18,20,22,-1,-1,-1,-1,-1,-1,-1,-1],"split_conditions":[1E0,5E0,3.0303031E-2,9E0,3E0,5E0,1.5E1,-1.3680493E-2,-2.4913845E-3,8E0,-1.1177912E-2,-1.1034527E-2,7.2727275E-1,7E0,2.9411766E-1,1.0074067E-2,7.089447E-4,1.4007272E-3,1.1311821E-2,9.342318E-3,-1.3984777E-3,-2.5440315E-5,1.2105623E-2],"split_indices":[2,1,7,3,4,1,0,0,0,0,0,0,8,11,6,0,0,0,0,0,0,0,0],"split_type":[0,0,0,0,0,0,0,0,0,0,0,0,0,0,0,0,0,0,0,0,0,0,0],"sum_hessian":[8.718142E1,3.70921E1,5.0089325E1,3.2362938E1,4.7291613E0,8.288184E0,4.180114E1,3.1151966E1,1.2109721E0,3.0345452E0,1.694616E0,4.0125036E0,4.2756805E0,1.1111549E1,3.068959E1,1.3690879E0,1.6654572E0,2.057104E0,2.2185764E0,6.34213E0,4.7694187E0,1.299577E0,2.9390013E1],"tree_param":{"num_deleted":"0","num_feature":"13","num_nodes":"23","size_leaf_vector":"1"}},{"base_weights":[-4.3737225E-2,-1.1563526E0,7.280482E-1,-1.2945056E0,-1.5449202E-1,-1.9582917E-1,9.1327435E-1,-1.3633468E-2,-7.3996786E-4,4.9829397E-1,-1.1312951E-2,-9.311851E-1,6.294269E-1,3.5840496E-1,1.1069485E0,8.514029E-3,-2.2016515E-3,-1.2821455E-2,-2.662248E-3,-4.4179568E-4,1.1253399E-2,-1.2077492E-3,1.03043625E-2,1.1494787E-2,-2.3541018E-6],"categories":[],"categories_nodes":[],"categories_segments":[],"categories_sizes":[],"default_left":[0,0,0,0,0,0,0,0,0,0,0,0,0,0,0,0,0,0,0,0,0,0,0,0,0],"id":57,"left_children":[1,3,5,7,9,11,13,-1,-1,15,-1,17,19,21,23,-1,-1,-1,-1,-1,-1,-1,-1,-1,-1],"loss_changes":[8.363705E1,5.319294E0,1.0025938E1,2.8321571E0,4.369137E0,6.91769E0,4.7732964E0,0E0,0E0,1.2711062E0,0E0,1.0403624E0,1.8912909E0,4.6090813E0,1.6569939E0,0E0,0E0,0E0,0E0,0E0,0E0,0E0,0E0,0E0,0E0],"parents":[2147483647,0,0,1,1,2,2,3,3,4,4,5,5,6,6,9,9,11,11,12,12,13,13,14,14],"right_children":[2,4,6,8,10,12,14,-1,-1,16,-1,18,20,22,24,-1,-1,-1,-1,-1,-1,-1,-1,-1,-1],"split_conditions":[1E0,5E0,3.0303031E-2,9E0,1E1,5E0,1.5E1,-1.3633468E-2,-7.3996786E-4,3E0,-1.1312951E-2,4E0,7.2727275E-1,4.6153846E-1,6.4285713E-1,8.514029E-3,-2.2016515E-3,-1.2821455E-2,-2.662248E-3,-4.4179568E-4,1.1253399E-2,-1.2077492E-3,1.03043625E-2,1.1494787E-2,-2.3541018E-6],"split_indices":[2,1,7,3,0,1,0,0,0,4,0,2,8,8,5,0,0,0,0,0,0,0,0,0,0],"split_type":[0,0,0,0,0,0,0,0,0,0,0,0,0,0,0,0,0,0,0,0,0,0,0,0,0],"sum_hessian":[9.541916E1,3.8876312E1,5.654285E1,3.3908367E1,4.967943E0,9.433393E0,4.710946E1,3.1987144E1,1.921224E0,3.2715068E0,1.6964365E0,4.920528E0,4.512864E0,1.292639E1,3.4183067E1,2.0693972E0,1.2021096E0,2.6131673E0,2.3073606E0,2.2998521E0,2.2130122E0,8.024761E0,4.9016285E0,3.2881783E1,1.3012879E0],"tree_param":{"num_deleted":"0","num_feature":"13","num_nodes":"25","size_leaf_vector":"1"}},{"base_weights":[2.673266E-2,-1.0384699E0,7.8674525E-1,-1.2815993E0,1.7561007E-1,8.530693E-1,-9.699429E-3,-1.3619881E-2,-4.2476237E-4,-4.3617046E-1,6.619308E-1,9.5072305E-1,-1.21653285E-2,5.255728E-3,-1.0551585E-2,2.2789051E-3,9.54824E-3,6.206048E-3,1.1023105E-2,-1.0213245E-2,5.6415955E-3],"categories":[],"categories_nodes":[],"categories_segments":[],"categories_sizes":[],"default_left":[0,0,0,0,0,0,0,0,0,0,0,0,0,0,0,0,0,0,0,0,0],"id":58,"left_children":[1,3,5,7,9,11,-1,-1,-1,13,15,17,19,-1,-1,-1,-1,-1,-1,-1,-1],"loss_changes":[7.4484E1,1.1536663E1,7.0810623E0,3.1345024E0,2.4526565E0,4.426647E0,0E0,0E0,0E0,2.830972E0,3.480338E-1,1.6662025E0,4.232612E0,0E0,0E0,0E0,0E0,0E0,0E0,0E0,0E0],"parents":[2147483647,0,0,1,1,2,2,3,3,4,4,5,5,9,9,10,10,11,11,12,12],"right_children":[2,4,6,8,10,12,-1,-1,-1,14,16,18,20,-1,-1,-1,-1,-1,-1,-1,-1],"split_conditions":[9E0,1.5E-1,1E0,6.923077E-1,4E0,4.8387095E-1,-9.699429E-3,-1.3619881E-2,-4.2476237E-4,2.0833333E-1,6E0,1.7E1,5.172414E-2,5.255728E-3,-1.0551585E-2,2.2789051E-3,9.54824E-3,6.206048E-3,1.1023105E-2,-1.0213245E-2,5.6415955E-3],"split_indices":[0,5,9,8,1,5,0,0,0,5,1,0,8,0,0,0,0,0,0,0,0],"split_type":[0,0,0,0,0,0,0,0,0,0,0,0,0,0,0,0,0,0,0,0,0],"sum_hessian":[8.999551E1,3.732122E1,5.2674282E1,3.1047995E1,6.2732277E0,5.1253582E1,1.4207004E0,2.9063337E1,1.9846575E0,2.8239207E0,3.4493067E0,4.596679E1,5.286795E0,1.1648966E0,1.6590241E0,2.106193E0,1.3431137E0,1.6068277E1,2.9898512E1,1.6410837E0,3.6457114E0],"tree_param":{"num_deleted":"0","num_feature":"13","num_nodes":"21","size_leaf_vector":"1"}},{"base_weights":[-1.6095659E-2,-1.0942945E0,7.605783E-1,-1.2954273E0,1.3311799E-1,8.475587E-1,-1.1087002E-2,-1.3645641E-2,-3.872503E-1,-2.5855446E-1,9.5041115E-3,-6.061202E-2,9.4068986E-1,-9.126909E-3,3.2423197E-3,-1.1082051E-2,4.470024E-3,-1.124925E-2,7.0859822E-3,4.189321E-3,1.133559E-2],"categories":[],"categories_nodes":[],"categories_segments":[],"categories_sizes":[],"default_left":[0,0,0,0,0,0,0,0,0,0,0,0,0,0,0,0,0,0,0,0,0],"id":59,"left_children":[1,3,5,7,9,11,-1,-1,13,15,-1,17,19,-1,-1,-1,-1,-1,-1,-1,-1],"loss_changes":[8.037325E1,1.0092312E1,1.0012653E1,1.6451645E0,2.3470302E0,4.6148224E0,0E0,0E0,1.7334046E0,3.626894E0,0E0,5.6695833E0,4.449642E0,0E0,0E0,0E0,0E0,0E0,0E0,0E0,0E0],"parents":[2147483647,0,0,1,1,2,2,3,3,4,4,5,5,8,8,9,9,11,11,12,12],"right_children":[2,4,6,8,10,12,-1,-1,14,16,-1,18,20,-1,-1,-1,-1,-1,-1,-1,-1],"split_conditions":[9E0,1.5E-1,1E0,6.923077E-1,6E0,5.172414E-2,-1.1087002E-2,-1.3645641E-2,1E0,1E0,9.5041115E-3,7.8947365E-2,1.6E1,-9.126909E-3,3.2423197E-3,-1.1082051E-2,4.470024E-3,-1.124925E-2,7.0859822E-3,4.189321E-3,1.133559E-2],"split_indices":[0,5,9,8,1,8,0,0,4,4,0,7,0,0,0,0,0,0,0,0,0],"split_type":[0,0,0,0,0,0,0,0,0,0,0,0,0,0,0,0,0,0,0,0,0],"sum_hessian":[9.39846E1,3.9182076E1,5.480252E1,3.36178E1,5.5642724E0,5.2888138E1,1.914381E0,3.0772644E1,2.8451595E0,4.22376E0,1.3405125E0,4.951606E0,4.793653E1,1.4738767E0,1.3712828E0,1.6573057E0,2.5664544E0,1.8833201E0,3.068286E0,1.3793602E1,3.4142933E1],"tree_param":{"num_deleted":"0","num_feature":"13","num_nodes":"21","size_leaf_vector":"1"}},{"base_weights":[-3.8056176E-2,-1.2028741E0,7.424976E-1,-1.3099749E0,-3.3649927E-1,-2.737356E-1,9.3887585E-1,-1.344453E-2,-2.123214E-3,1.9971569E-1,-1.0839564E-2,-1.1929668E-2,2.973504E-1,3.32535E-1,1.107519E0,-4.0086103E-3,6.8701045E-3,-5.389165E-3,8.506883E-3,6.1175544E-3,-4.4214753E-3,1.1943489E-2,2.5991641E-3],"categories":[],"categories_nodes":[],"categories_segments":[],"categories_sizes":[],"default_left":[0,0,0,0,0,0,0,0,0,0,0,0,0,0,0,0,0,0,0,0,0,0,0],"id":60,"left_children":[1,3,5,7,9,11,13,-1,-1,15,-1,-1,17,19,21,-1,-1,-1,-1,-1,-1,-1,-1],"loss_changes":[8.5952354E1,3.0776558E0,1.1559391E1,9.7862625E-1,2.4278665E0,5.57602E0,4.5081367E0,0E0,0E0,1.4627454E0,0E0,0E0,3.6676497E0,2.8243313E0,2.4040031E0,0E0,0E0,0E0,0E0,0E0,0E0,0E0,0E0],"parents":[2147483647,0,0,1,1,2,2,3,3,4,4,5,5,6,6,9,9,12,12,13,13,14,14],"right_children":[2,4,6,8,10,12,14,-1,-1,16,-1,-1,18,20,22,-1,-1,-1,-1,-1,-1,-1,-1],"split_conditions":[1E0,5E0,3.0303031E-2,9E0,1E1,4E0,8E0,-1.344453E-2,-2.123214E-3,7.567568E-1,-1.0839564E-2,-1.1929668E-2,4E0,7E0,7.7272725E-1,-4.0086103E-3,6.8701045E-3,-5.389165E-3,8.506883E-3,6.1175544E-3,-4.4214753E-3,1.1943489E-2,2.5991641E-3],"split_indices":[2,1,7,0,0,1,3,0,0,6,0,0,2,11,6,0,0,0,0,0,0,0,0],"split_type":[0,0,0,0,0,0,0,0,0,0,0,0,0,0,0,0,0,0,0,0,0,0,0],"sum_hessian":[9.255361E1,3.691878E1,5.563483E1,3.240133E1,4.5174556E0,8.946072E0,4.668876E1,3.1196577E1,1.204751E0,3.0571249E0,1.4603306E0,3.0108328E0,5.935239E0,1.0806568E1,3.588219E1,1.4488426E0,1.6082822E0,2.3737783E0,3.5614607E0,8.098077E0,2.7084916E0,3.217684E1,3.7053473E0],"tree_param":{"num_deleted":"0","num_feature":"13","num_nodes":"23","size_leaf_vector":"1"}},{"base_weights":[-3.479833E-2,-1.1623193E0,7.331061E-1,-1.315742E0,8.718147E-2,4.5474106E-1,1.2356681E0,-1.3416743E-2,-4.2541292E-3,-6.5112696E-3,8.140638E-3,-6.2337704E-2,8.089924E-1,1.3173089E0,2.2927043E-3,1.5003858E-3,-1.1160642E-2,9.133923E-3,3.0495145E-3,1.3641591E-2,2.9303962E-3],"categories":[],"categories_nodes":[],"categories_segments":[],"categories_sizes":[],"default_left":[0,0,0,0,0,0,0,0,0,0,0,0,0,0,0,0,0,0,0,0,0],"id":61,"left_children":[1,3,5,7,9,11,13,-1,-1,-1,-1,15,17,19,-1,-1,-1,-1,-1,-1,-1],"loss_changes":[8.263125E1,7.5244827E0,7.3840694E0,2.2550201E-1,3.3018596E0,7.0358853E0,1.3136425E0,0E0,0E0,0E0,0E0,3.8449066E0,9.160986E-1,4.6295357E-1,0E0,0E0,0E0,0E0,0E0,0E0,0E0],"parents":[2147483647,0,0,1,1,2,2,3,3,4,4,5,5,6,6,11,11,12,12,13,13],"right_children":[2,4,6,8,10,12,14,-1,-1,-1,-1,16,18,20,-1,-1,-1,-1,-1,-1,-1],"split_conditions":[9E0,1.5E-1,5E0,5E0,4E0,5E0,3.6666667E-1,-1.3416743E-2,-4.2541292E-3,-6.5112696E-3,8.140638E-3,3.9E1,1.8181819E-1,3.2E1,2.2927043E-3,1.5003858E-3,-1.1160642E-2,9.133923E-3,3.0495145E-3,1.3641591E-2,2.9303962E-3],"split_indices":[0,5,4,1,1,1,7,0,0,0,0,0,7,2,0,0,0,0,0,0,0],"split_type":[0,0,0,0,0,0,0,0,0,0,0,0,0,0,0,0,0,0,0,0,0],"sum_hessian":[9.345191E1,3.7652615E1,5.5799297E1,3.3487736E1,4.164878E0,3.7135235E1,1.8664062E1,3.204736E1,1.4403758E0,2.1179025E0,2.0469754E0,1.5432866E1,2.170237E1,1.6977854E1,1.6862085E0,1.355791E1,1.874956E0,1.7305761E1,4.39661E0,1.5917929E1,1.0599248E0],"tree_param":{"num_deleted":"0","num_feature":"13","num_nodes":"21","size_leaf_vector":"1"}},{"base_weights":[5.2209147E-3,-1.0772587E0,7.366893E-1,-1.3038129E0,-3.0971799E-2,8.332784E-1,-1.1358672E-2,-2.3955172E-3,-1.3375003E-2,-5.6770265E-1,1.10139605E-2,9.2245823E-1,-8.124987E-3,-1.13073345E-2,2.26708E-3,1.0079756E-2,3.180151E-3],"categories":[],"categories_nodes":[],"categories_segments":[],"categories_sizes":[],"default_left":[0,0,0,0,0,0,0,0,0,0,0,0,0,0,0,0,0],"id":62,"left_children":[1,3,5,7,9,11,-1,-1,-1,13,-1,15,-1,-1,-1,-1,-1],"loss_changes":[7.3459114E1,8.8280525E0,1.0959284E1,7.813225E-1,5.295137E0,8.56073E0,0E0,0E0,0E0,2.8830369E0,0E0,2.3132591E0,0E0,0E0,0E0,0E0,0E0],"parents":[2147483647,0,0,1,1,2,2,3,3,4,4,5,5,9,9,11,11],"right_children":[2,4,6,8,10,12,-1,-1,-1,14,-1,16,-1,-1,-1,-1,-1],"split_conditions":[9E0,4E0,1E0,4.074074E-1,1.4285715E-1,3E1,-1.1358672E-2,-2.3955172E-3,-1.3375003E-2,6.923077E-1,1.10139605E-2,2.7118644E-1,-8.124987E-3,-1.13073345E-2,2.26708E-3,1.0079756E-2,3.180151E-3],"split_indices":[0,1,9,6,5,2,0,0,0,8,0,7,0,0,0,0,0],"split_type":[0,0,0,0,0,0,0,0,0,0,0,0,0,0,0,0,0],"sum_hessian":[9.0772606E1,3.641312E1,5.435949E1,2.972959E1,6.68353E0,5.2220867E1,2.1386197E0,1.1610316E0,2.8568558E1,4.8726177E0,1.8109123E0,4.9953533E1,2.2673364E0,2.6038222E0,2.2687953E0,4.317716E1,6.7763734E0],"tree_param":{"num_deleted":"0","num_feature":"13","num_nodes":"17","size_leaf_vector":"1"}},{"base_weights":[6.5222136E-3,-1.1115079E0,7.68704E-1,-1.2690614E0,3.162574E-1,8.4367955E-1,-1.0121206E-2,-1.3284172E-2,-4.5838636E-1,1.077353E-2,-5.957823E-3,6.246512E-1,1.1844411E0,2.4546129E-3,-9.742866E-3,7.18846E-3,-6.924879E-3,1.2625189E-2,2.26075E-3],"categories":[],"categories_nodes":[],"categories_segments":[],"categories_sizes":[],"default_left":[0,0,0,0,0,0,0,0,0,0,0,0,0,0,0,0,0,0,0],"id":63,"left_children":[1,3,5,7,9,11,-1,-1,13,-1,-1,15,17,-1,-1,-1,-1,-1,-1],"loss_changes":[7.76912E1,8.715626E0,8.091705E0,1.0023994E0,3.7473283E0,3.1832962E0,0E0,0E0,1.6231349E0,0E0,0E0,4.730113E0,1.1700153E0,0E0,0E0,0E0,0E0,0E0,0E0],"parents":[2147483647,0,0,1,1,2,2,3,3,4,4,5,5,8,8,11,11,12,12],"right_children":[2,4,6,8,10,12,-1,-1,14,-1,-1,16,18,-1,-1,-1,-1,-1,-1],"split_conditions":[9E0,5E0,1E0,1.5E-1,8E0,5E0,-1.0121206E-2,-1.3284172E-2,2.0833333E-1,1.077353E-2,-5.957823E-3,2.7E1,3.75E-1,2.4546129E-3,-9.742866E-3,7.18846E-3,-6.924879E-3,1.2625189E-2,2.26075E-3],"split_indices":[0,1,9,5,0,4,0,0,5,0,0,2,7,0,0,0,0,0,0],"split_type":[0,0,0,0,0,0,0,0,0,0,0,0,0,0,0,0,0,0,0],"sum_hessian":[8.916896E1,3.5960644E1,5.3208317E1,3.248688E1,3.473764E0,5.156365E1,1.6446683E0,2.967546E1,2.8114204E0,1.7947726E0,1.6789913E0,3.3113E1,1.8450651E1,1.4108256E0,1.4005948E0,3.13269E1,1.7860972E0,1.676726E1,1.6833899E0],"tree_param":{"num_deleted":"0","num_feature":"13","num_nodes":"19","size_leaf_vector":"1"}},{"base_weights":[-5.36878E-2,-1.1130157E0,7.642407E-1,-1.2733848E0,-5.1303588E-2,8.672017E-1,-1.124718E-2,-1.3393501E-2,-4.730899E-1,-5.010486E-1,9.332474E-3,-4.078356E-1,9.618139E-1,-9.628013E-3,3.1555106E-3,4.781305E-3,-1.2392619E-2,-1.0596817E-2,3.0120173E-3,5.802576E-3,1.1582337E-2],"categories":[],"categories_nodes":[],"categories_segments":[],"categories_sizes":[],"default_left":[0,0,0,0,0,0,0,0,0,0,0,0,0,0,0,0,0,0,0,0,0],"id":64,"left_children":[1,3,5,7,9,11,-1,-1,13,15,-1,17,19,-1,-1,-1,-1,-1,-1,-1,-1],"loss_changes":[7.9955826E1,6.776951E0,1.1110519E1,1.2072334E0,3.264051E0,6.4218903E0,0E0,0E0,1.9264581E0,4.196472E0,0E0,2.2395167E0,2.837452E0,0E0,0E0,0E0,0E0,0E0,0E0,0E0,0E0],"parents":[2147483647,0,0,1,1,2,2,3,3,4,4,5,5,8,8,9,9,11,11,12,12],"right_children":[2,4,6,8,10,12,-1,-1,14,16,-1,18,20,-1,-1,-1,-1,-1,-1,-1,-1],"split_conditions":[9E0,1.5E-1,1E0,6.923077E-1,6E0,4.5045044E-2,-1.124718E-2,-1.3393501E-2,1E0,2.0833333E-1,9.332474E-3,6.086956E-1,1.7E1,-9.628013E-3,3.1555106E-3,4.781305E-3,-1.2392619E-2,-1.0596817E-2,3.0120173E-3,5.802576E-3,1.1582337E-2],"split_indices":[0,5,9,8,1,8,0,0,4,5,0,6,0,0,0,0,0,0,0,0,0],"split_type":[0,0,0,0,0,0,0,0,0,0,0,0,0,0,0,0,0,0,0,0,0],"sum_hessian":[9.029759E1,3.918585E1,5.1111744E1,3.387043E1,5.3154187E0,4.898276E1,2.1289806E0,3.0668936E1,3.201496E0,3.9857903E0,1.3296285E0,3.1549287E0,4.5827835E1,1.8388281E0,1.3626677E0,1.8647141E0,2.121076E0,1.3860979E0,1.7688309E0,1.6917952E1,2.8909882E1],